leave 0.477597 0.538230 0.945486 -0.812267 -0.850881 0.211098 -0.797977 -0.255059 -0.931861 -0.257241 -0.316474 -0.113052 0.366943 -0.611366 -0.969337 0.275771 -0.115509 0.334764 -0.273651 0.009065 -0.312981 0.514305 0.422293 -0.565493 -0.799331 -0.085991 0.265244 0.769435 -0.785043 0.718589 -0.364909 0.142950 -0.533731 0.402377 -0.214926 0.843143 -0.370835 -0.548069 0.973254 -0.441392 0.566572 -0.432633 0.848592 -0.847485 0.278485 -0.050582 -0.649566 -0.231204 0.249480 0.096488 0.585017 0.165255 -0.222470 -0.598275 0.606952 -0.727566 -0.148597 0.810307 0.482906 0.603732 0.657940 0.202811 0.848723 -0.817419 0.817368 -0.029763 0.497331 -0.487701 -0.449240 -0.145466 0.324830 -0.443891 -0.403003 -0.710624 0.997966 -0.840242 0.081510 -0.494337 0.022002 -0.910172 -0.068128 -0.805607 0.118194 0.006066 0.793458 0.497931 0.163250 -0.524444 -0.128188 0.216931 0.878036 0.156034 -0.919444 0.626692 -0.452344 -0.545776 0.782313 -0.775781 0.455385 -0.291836 -0.247923 0.411139 0.738255 -0.642265 0.094487 0.396311 0.530011 -0.636873 0.145760 -0.826903 -0.656465 -0.361059 0.053956 0.938733 -0.815730 -0.047626 -0.353510 -0.980408 0.323424 0.767632 0.625168 0.077595 -0.614260 -0.903595 -0.140208 0.863584 0.050011 0.812259 -0.818982 0.613968 -0.868757 -0.614850 0.895052 -0.881374 -0.741845 -0.809210 -0.936355 0.707554 -0.624874 -0.503248 -0.788819 0.412784 0.310297 0.608144 0.840774 0.330260 0.927094 0.713680 0.027195 -0.002515 -0.863844 -0.803193 -0.841462 0.685006 -0.784487 0.550393 -0.922774 0.058334 0.143857 0.763087 -0.036590 0.491758 0.093205 0.787634 -0.557303 -0.189298 -0.269461 0.317162 -0.527480 0.591492 -0.719353 -0.666257 0.876864 -0.607803 0.900258 -0.037439 -0.350734 0.038827 0.188132 -0.710055 0.113221 -0.790819 0.819041 0.435334 0.868903 -0.219355 0.674148 0.651050 0.038297 -0.041793 0.029621 -0.460295 0.693741 0.810827 -0.933360 0.511046 -0.267131 -0.940280 -0.391089 0.555172 -0.211467 -0.393275 0.150194 0.421757 -0.929692 -0.982168 0.327710 0.100098 0.481953 -0.894085 -0.539727 -0.140469 -0.465256 -0.382639 0.932503 0.358088 0.991673 0.309527 -0.562455 0.580986 -0.767275 0.166281 -0.374848 -0.150788 0.717212 -0.997703 -0.208448 0.167338 0.370366 -0.965908 0.829139 -0.696087 -0.521799 -0.747974 -0.152443 -0.530188 -0.458942 0.359333 -0.625395 -0.081059 0.183873 -0.822279 0.380483 0.736836 -0.674477 0.648749 0.231356 -0.990071 0.185957 0.469410 0.820820 -0.231688 -0.025671 0.465575 0.606962 -0.581313 -0.031505 -0.954450 -0.034039 -0.926813 0.408843 -0.998355 0.712286 0.797617 -0.368031 0.398489 -0.208370 0.938271 0.161188 -0.041759 -0.507492 0.435648 -0.767850 0.203013 0.716633 0.857676 0.691252 0.397178 0.806742 0.281156 -0.605849 0.986522 0.266922 0.432600 -0.742831 0.940576 -0.788848 -0.365615 0.080947 -0.476815 -0.387891 -0.217756 0.591511 0.184794 0.523873 0.187649 0.845174 -0.667957 0.355410 -0.447986
money -0.591806 -0.154433 0.848898 -0.475205 0.102745 -0.667693 0.432602 0.969783 -0.961523 0.184468 0.791301 0.273014 -0.465731 -0.134655 -0.735478 -0.265287 0.907090 -0.933119 0.510392 -0.550706 -0.553765 0.182589 -0.755247 -0.028370 0.147468 -0.161099 0.337440 0.337551 -0.379994 -0.389312 0.032991 -0.479788 -0.081051 -0.716170 -0.059463 -0.130354 0.897030 0.941171 0.126826 0.505867 -0.877296 -0.005458 -0.256227 -0.607904 -0.874058 -0.120431 0.050552 0.423168 -0.005794 -0.590996 0.449202 0.670613 0.602949 0.849400 -0.953827 0.914357 0.017679 0.479964 -0.650931 0.046764 0.442945 0.404020 0.124486 -0.153540 -0.963840 0.211161 0.832428 0.352325 -0.488521 0.498010 0.496450 0.217051 -0.865657 0.243857 -0.070860 -0.503856 0.221837 0.722492 -0.671531 -0.182846 -0.065098 -0.764713 -0.551635 0.690803 -0.479914 -0.880960 0.939943 -0.166613 0.234179 -0.775313 -0.251432 -0.604364 0.894984 -0.972628 0.332287 -0.081302 -0.256941 -0.940758 -0.871362 0.992815 -0.001436 0.586804 0.594967 -0.910784 0.314126 -0.511982 -0.192710 0.555478 0.716879 -0.357482 0.684422 -0.290477 -0.026091 0.669303 -0.072454 -0.631548 0.908862 -0.846780 0.806387 0.785354 0.564941 -0.117440 0.661081 -0.496308 0.126425 -0.952093 0.620192 0.445452 0.890060 0.917064 0.759113 -0.058813 -0.087343 0.425027 -0.445114 -0.498674 0.237365 0.764207 -0.270270 0.601430 -0.682814 -0.737779 -0.781574 0.367091 -0.445693 -0.491349 0.564770 -0.671024 -0.469924 0.036134 0.200663 -0.552523 0.637124 0.134564 0.549741 -0.024374 0.964898 -0.116901 -0.365509 0.688320 -0.046833 -0.480043 0.669090 0.991151 0.938278 0.701040 0.415261 -0.495076 -0.153678 -0.970832 0.069108 0.223449 -0.998613 -0.044382 -0.424877 -0.394126 0.907123 -0.817458 0.727974 -0.083801 -0.084866 -0.029764 0.791971 -0.643317 0.160212 0.035578 -0.553483 -0.290089 -0.305066 -0.150680 0.617490 0.733692 -0.227449 0.792895 0.591631 -0.762348 -0.308646 0.888393 -0.868588 -0.156959 -0.930429 -0.134491 -0.901834 -0.691573 0.757691 0.904733 -0.423689 0.771516 0.479518 -0.117922 0.738516 0.952939 -0.263312 0.822234 0.046477 0.357864 -0.731503 -0.456607 0.537050 -0.933578 0.698311 0.503972 0.723201 -0.630562 -0.772238 0.544054 -0.650927 -0.378777 0.303387 0.486779 -0.714047 0.497413 0.646292 -0.870007 -0.144324 -0.967729 0.093135 0.574025 -0.684515 0.695011 -0.338922 0.353303 -0.082801 0.541895 -0.717478 0.519200 0.858700 0.390818 0.363127 0.972058 -0.678387 -0.391934 -0.477182 -0.237748 -0.077471 -0.347237 0.137493 0.453942 0.330888 0.836579 -0.992611 0.478125 0.996959 0.196030 0.635225 -0.372547 -0.902552 -0.656820 0.518312 0.815238 0.029347 -0.088399 0.561088 -0.107476 0.400694 -0.713165 -0.396729 -0.027821 -0.708904 0.117148 -0.111116 0.659876 0.333311 0.750521 0.368628 -0.388388 0.882912 0.962280 -0.559289 -0.662317 0.564078 -0.827993 -0.843189 0.451966 0.067984 0.656717 -0.362655 -0.014415 0.583125 -0.443257
bathroom 0.339581 -0.897747 -0.198386 -0.807949 -0.241216 -0.356347 -0.775522 -0.700928 -0.737609 -0.474449 0.610209 0.033632 -0.084372 0.861292 0.250605 0.551217 -0.516760 0.738695 0.992798 0.480238 -0.898298 -0.404990 -0.405994 -0.624294 -0.588138 -0.933979 0.622878 0.484905 -0.362286 -0.159953 -0.393291 0.251355 0.882925 0.958055 0.672893 0.174913 0.962472 0.092147 0.144084 0.448968 -0.959298 -0.475082 -0.061242 0.862368 -0.706473 0.745922 -0.701541 0.673488 0.614939 0.038147 -0.603154 0.795229 -0.589510 0.551339 0.828280 0.925714 0.317627 -0.199422 0.453580 -0.843158 -0.149009 -0.653829 0.579998 -0.870176 0.497483 -0.809726 -0.919383 0.076193 0.864989 -0.777212 -0.757343 -0.453571 -0.905111 -0.943799 -0.827869 0.833798 0.103980 -0.650289 -0.888909 0.064628 -0.991142 -0.958675 -0.976845 -0.362489 -0.853337 -0.650605 -0.781597 0.023905 0.771116 -0.639394 0.513698 0.224301 -0.032179 -0.584962 0.622048 -0.784407 -0.442207 0.001664 0.448929 -0.279706 -0.854474 -0.690317 -0.754826 -0.730392 0.590206 0.069567 -0.732994 -0.660008 0.672654 -0.156862 -0.929115 0.153961 -0.901560 0.353304 0.299289 0.586826 -0.845358 -0.372364 -0.924899 -0.685080 0.128869 -0.167748 0.732698 0.855551 -0.040110 -0.105596 0.929188 -0.782738 -0.403636 -0.678958 0.762201 -0.185359 -0.952891 -0.979059 -0.641624 -0.215210 -0.872240 0.987655 -0.016492 -0.710308 0.717577 -0.742831 0.331651 -0.905902 0.660336 0.339482 0.950519 -0.049150 -0.914919 0.929197 0.503119 0.397966 0.528608 -0.470204 -0.372755 -0.571811 -0.590936 -0.420196 -0.217972 -0.906931 -0.975158 0.367865 0.147330 0.438841 0.644469 -0.438219 -0.518768 -0.100307 -0.441566 -0.191823 -0.773382 0.003273 0.661591 -0.034818 0.813116 0.651384 0.421569 -0.881541 -0.131292 0.353445 0.478869 0.114487 -0.717993 -0.155373 -0.263571 0.374683 0.039837 -0.586774 -0.065633 0.857111 0.822372 -0.096189 0.997245 0.399278 0.118011 0.535447 -0.502796 -0.569812 0.032950 0.001823 -0.821467 0.510143 -0.200818 -0.193174 -0.532439 -0.569586 -0.174535 -0.353990 0.833713 0.778991 -0.147269 -0.354663 -0.640825 -0.695025 0.103657 0.517485 0.084232 -0.894695 0.178994 0.868346 -0.981346 -0.679911 0.726333 0.120784 0.130840 0.602675 0.439750 -0.329593 -0.128907 -0.882209 0.198198 0.870914 0.230124 -0.919612 -0.217180 0.130518 0.515062 0.509423 0.432508 -0.719437 -0.131545 -0.319011 -0.564092 0.289063 0.445557 0.233381 -0.284694 0.284150 -0.094909 0.658262 -0.232865 0.809001 0.639829 0.852614 -0.667562 0.361641 -0.500270 -0.780438 0.269432 0.180104 0.151600 0.418466 -0.101568 -0.355143 -0.811128 -0.683088 0.277523 -0.780472 0.139295 0.086915 0.677430 0.629605 -0.652214 0.310599 -0.474559 -0.009650 0.568489 0.740137 -0.312790 0.894180 0.715002 0.886861 0.567478 -0.589736 0.300379 -0.504508 -0.180751 0.245321 0.756151 -0.379832 0.375431 -0.159713 0.721778 0.210113 0.743841 0.793356 0.096990 0.360613 0.890726 -0.841137
laden -0.482127 -0.944797 0.783143 -0.136948 0.171195 0.302308 0.761913 0.269447 0.511413 0.949666 -0.244452 0.561797 0.593390 -0.245742 -0.043867 0.902186 0.229856 -0.671221 0.913386 -0.455829 0.253251 -0.411126 0.574804 -0.034830 -0.352483 -0.768166 -0.026702 0.763008 0.335160 -0.896830 -0.202325 0.264607 -0.742560 0.668582 -0.421013 -0.328559 -0.591740 -0.598031 -0.495253 0.214096 0.666058 0.313391 0.588121 -0.521087 -0.446483 0.158534 0.797004 -0.214195 -0.046929 0.424226 0.569110 -0.251398 0.631375 0.599560 -0.769449 -0.709352 0.453274 0.258406 -0.743048 -0.833035 0.665644 -0.523439 -0.252781 0.248267 0.063054 0.719224 -0.877029 0.770870 0.542768 -0.968653 0.752190 0.173347 -0.005840 0.795061 0.359917 -0.410922 0.205381 -0.993789 0.469525 0.050170 -0.572193 0.303708 0.747744 -0.781372 -0.229540 -0.613618 0.077796 -0.584694 -0.729301 0.291372 0.774532 0.753829 0.350048 -0.548800 -0.473483 0.061330 0.986527 0.657409 0.860518 0.056071 0.042855 0.326573 -0.836301 -0.242104 -0.449362 -0.382399 -0.791363 0.664011 -0.016186 -0.860311 0.929477 -0.720993 0.886854 -0.697284 0.794722 -0.190173 -0.879264 -0.649762 -0.663264 0.664598 -0.914973 0.176094 0.641418 -0.073218 -0.280999 -0.635317 0.510421 -0.479462 0.387416 0.316496 -0.356286 -0.063471 -0.751477 0.664977 0.567862 -0.929558 0.136514 0.965729 0.971200 0.577596 -0.206678 0.659325 -0.008238 -0.710278 0.111478 -0.003374 0.891113 -0.538492 -0.551040 -0.026374 0.419455 0.941378 0.748710 0.048913 0.200210 -0.617437 -0.514235 0.998745 -0.269008 0.670266 0.983207 -0.180646 -0.385465 0.104728 -0.175204 0.471724 0.304337 -0.110590 0.083697 -0.086897 -0.242505 0.612781 -0.740018 0.910913 -0.634854 -0.756764 -0.757154 -0.187894 0.691500 -0.175433 -0.314070 0.192657 -0.587979 0.759333 -0.005907 0.890411 0.615616 -0.401037 -0.680265 -0.588644 -0.805889 0.878328 0.031510 0.784510 0.679994 -0.239677 0.710655 -0.713002 0.934554 -0.167008 -0.557956 0.498683 -0.506085 -0.765725 0.685177 -0.970352 0.168161 0.553705 0.536190 -0.884203 -0.401534 0.026267 -0.205593 -0.133092 0.493328 0.616499 -0.409607 -0.990818 0.327368 -0.088323 -0.032542 0.516960 -0.119608 0.879649 -0.605460 0.593596 0.954742 0.206276 0.914323 -0.782164 -0.268305 -0.531762 -0.019859 -0.621033 0.131873 -0.123515 0.445893 0.391512 -0.156745 -0.385678 -0.358095 -0.112637 0.502835 0.008674 0.592515 -0.034187 -0.374440 0.879070 -0.227027 0.856534 -0.291629 -0.922369 0.377346 0.511365 0.030063 0.436049 0.532288 -0.045918 0.387550 0.762545 0.654121 0.616433 -0.848806 0.793332 0.224314 0.220346 0.579270 -0.273226 -0.127133 -0.912138 -0.572156 -0.956700 -0.610552 0.176432 0.427583 -0.723616 0.844758 -0.662769 -0.482094 -0.288978 0.099992 -0.870007 0.754061 -0.987341 0.399673 0.222121 -0.171601 0.616525 -0.230158 0.117333 -0.941290 -0.328826 0.144993 0.076128 0.311103 -0.721125 -0.757526 0.034674 -0.014779 0.034880
door 0.564867 -0.833154 0.564497 0.981201 -0.283625 -0.255648 -0.137352 -0.790610 0.115332 -0.899271 0.290585 -0.391695 0.440165 0.812007 0.350199 -0.343353 0.359449 -0.417090 -0.971005 -0.157899 -0.355041 -0.057883 -0.028113 -0.443858 0.952866 0.178198 -0.550950 0.369084 0.031149 0.325242 -0.397260 -0.579778 -0.894515 -0.453742 -0.954576 -0.514740 -0.080171 0.241056 0.348902 0.557419 -0.192868 0.644902 0.789613 -0.731339 -0.206001 -0.212403 0.509813 -0.944969 -0.347313 0.192710 0.701231 -0.331273 -0.988836 -0.293764 -0.798585 0.242019 0.428749 0.148790 0.681983 0.268997 -0.906194 -0.000694 -0.521864 -0.191847 -0.716399 0.448502 0.546210 0.290557 -0.891679 0.955284 -0.425379 0.152189 0.037306 -0.210525 -0.616557 -0.220859 0.322805 -0.813131 0.358427 -0.351859 -0.252871 -0.640030 0.430578 -0.690146 -0.203370 0.755129 -0.652536 -0.936518 0.414027 0.298409 -0.785729 0.018302 0.688735 -0.472756 0.647355 0.580707 0.068340 0.388256 0.281731 -0.430844 -0.582859 -0.640889 -0.038004 0.982023 -0.793737 -0.299628 0.192420 0.273838 -0.075807 -0.945322 0.418557 -0.688598 -0.044386 -0.380779 0.202303 0.169359 -0.156001 -0.420009 -0.909339 -0.364975 0.706602 0.925481 -0.926654 -0.690051 -0.994075 -0.359642 0.785109 0.514778 -0.598632 -0.745262 0.990607 0.162822 -0.974101 0.431995 -0.178663 0.980259 0.107705 0.339110 0.554572 0.656335 -0.125211 0.562301 -0.556027 -0.374619 0.135514 0.514410 -0.129221 0.522146 -0.173396 -0.693282 0.915835 0.043352 0.697564 0.623125 -0.945842 0.935819 -0.435132 -0.677209 0.740148 -0.714408 0.481448 -0.723023 0.815284 0.404571 0.069838 0.641083 0.623213 -0.817136 -0.891934 0.777390 -0.610160 0.482336 -0.468776 0.513623 0.703533 -0.149023 -0.898077 -0.687702 -0.588863 0.595958 0.391250 0.234161 0.038714 0.345494 0.119339 0.230670 0.742720 0.479662 -0.605686 -0.859921 -0.702252 0.522506 -0.759446 -0.329350 0.234629 0.455032 0.111450 0.919790 0.245087 -0.793127 -0.274283 0.491743 0.120239 -0.756203 -0.654000 0.228593 -0.821277 0.662975 -0.958040 -0.384202 0.917155 0.926306 0.216662 -0.773683 0.224498 -0.756461 0.123997 -0.160312 0.522568 -0.027852 0.972019 0.752565 0.354703 -0.864627 0.753499 0.621551 0.150502 -0.372057 0.167465 0.673851 0.216652 -0.022350 0.370726 0.823020 0.463989 0.510748 -0.509096 0.376550 -0.978193 -0.011202 -0.162398 0.786523 -0.910820 0.485631 -0.649943 0.721869 -0.106557 0.846609 -0.975163 -0.318965 -0.295346 0.731801 -0.486855 -0.597607 -0.714233 0.224102 -0.211029 0.745643 0.189165 0.642205 0.999857 -0.010921 0.601828 -0.326084 0.699833 -0.053952 0.750124 -0.072260 0.902485 -0.129868 0.639467 -0.716175 0.705732 0.929683 -0.258696 -0.771594 -0.375013 0.849266 0.055777 0.742348 0.520307 -0.561590 -0.912319 0.921949 0.401895 0.544727 0.286541 0.509677 0.908251 -0.888230 0.254777 0.907559 -0.182551 0.384848 0.313935 0.005648 -0.823803 -0.655804 -0.774575 -0.793333
accept 0.694193 0.598816 -0.636781 -0.865095 -0.466806 -0.086087 -0.384060 0.939236 0.306399 -0.737288 0.773775 0.747794 -0.574163 -0.677432 -0.453901 -0.834229 -0.928375 0.704349 -0.135836 -0.320539 0.151441 0.173974 0.128921 0.692062 0.458489 -0.937649 0.904037 0.442253 -0.062825 -0.891931 0.541830 0.618473 0.534611 0.499530 -0.673042 -0.077890 -0.678930 -0.567357 -0.215578 0.023866 -0.121631 -0.529678 0.327716 -0.529532 -0.056827 -0.647499 0.829453 -0.307711 -0.107859 0.420076 0.884705 0.685414 0.502530 0.177932 0.796387 -0.543915 -0.844787 -0.526236 -0.389465 0.988998 -0.871330 0.619449 0.708531 -0.064646 0.783246 -0.229921 -0.840195 0.990146 0.857628 -0.543645 -0.157021 -0.142611 0.258145 -0.517056 0.624302 0.331092 -0.814001 0.853666 0.521217 -0.599401 -0.364894 -0.468978 -0.490857 -0.672395 -0.374221 -0.408588 0.459851 0.678508 -0.539692 0.210756 -0.552323 -0.051146 0.518634 -0.155565 0.733383 0.685427 -0.842933 -0.526986 -0.547058 0.728766 0.586054 0.273504 0.189807 -0.308768 0.248674 0.522731 -0.355894 0.758284 -0.827481 -0.894045 -0.508342 -0.171974 -0.678740 -0.650025 -0.175919 -0.173966 -0.480592 -0.250672 -0.845293 -0.908230 0.159747 -0.023776 -0.260147 0.996564 0.017607 0.032677 -0.839259 -0.823278 -0.907648 0.908994 0.470663 0.342541 -0.051509 -0.599840 0.003337 0.638949 -0.715203 -0.579494 -0.095275 -0.618730 0.934559 -0.321420 -0.758698 -0.380292 -0.974460 0.032417 0.801853 -0.403116 -0.933659 0.006581 0.183270 -0.878084 0.665430 -0.835616 0.386711 -0.876381 0.247717 -0.257214 0.346902 0.175910 -0.935264 -0.842594 0.309602 0.480938 -0.488371 -0.352604 0.338079 0.681877 0.235560 -0.041278 0.145526 0.436612 0.701660 -0.865740 -0.211227 -0.213625 -0.852086 -0.487226 0.348299 0.453427 -0.498208 -0.007346 0.881569 -0.978278 0.533999 0.734910 -0.405058 -0.461020 0.649248 -0.431871 -0.708335 -0.115059 -0.641513 -0.507741 0.927046 -0.106755 -0.053931 0.382868 0.742254 0.929779 -0.404604 0.306463 0.590141 -0.322130 -0.779351 0.702489 -0.938965 0.087582 0.947368 -0.103287 0.199921 -0.607372 0.331955 -0.892791 -0.736085 0.925932 0.783324 -0.815532 0.410849 -0.516181 -0.697570 0.447235 0.293437 0.971849 -0.209589 0.178395 -0.677986 -0.422293 0.322742 0.703784 0.355258 -0.012557 -0.875594 0.268051 0.034518 0.876414 -0.916947 -0.007709 -0.766624 -0.758221 0.946686 0.027943 0.977493 0.523662 0.546554 0.120535 -0.384182 0.996337 0.637947 0.700265 -0.462485 -0.038200 -0.961929 -0.504590 -0.312237 -0.296070 -0.434318 0.191635 -0.570950 -0.737665 0.786843 -0.136391 0.839832 0.997590 -0.151037 0.044371 -0.627100 -0.396697 0.177301 -0.002281 -0.212143 0.097844 0.576325 -0.511494 -0.761823 -0.893880 -0.839786 -0.075304 0.923178 0.643107 -0.719176 -0.977512 0.908420 -0.655111 0.594238 -0.289779 0.800295 -0.103662 0.976067 -0.010080 -0.569616 0.648291 -0.821627 -0.521703 -0.907713 -0.750451 -0.174405 -0.352403 0.055511 0.427480
daughter 0.592213 0.954216 0.807435 -0.130092 -0.416003 0.614791 0.269907 0.552669 0.378844 0.972695 -0.550698 -0.361234 -0.314154 -0.052027 0.081262 0.079192 0.913404 0.701814 -0.732878 0.252962 0.923105 -0.053681 0.278867 -0.298617 0.801523 -0.820206 -0.561855 -0.653955 0.730318 0.268608 0.729025 -0.326822 0.151494 0.414157 0.032708 0.886800 -0.233985 0.758904 0.440092 -0.590934 -0.077529 -0.008789 -0.369224 0.018112 0.253933 0.304595 0.904696 0.953924 0.369660 -0.436072 -0.531486 -0.127159 -0.391500 0.258711 0.825854 -0.549125 -0.751680 -0.270741 0.010422 -0.881895 0.030997 0.466115 0.082525 0.729380 0.473984 0.818570 -0.596971 -0.539104 -0.214522 -0.293812 -0.268797 -0.923134 -0.150576 -0.947156 -0.772239 -0.122979 0.865467 0.253809 0.166253 -0.331309 0.128999 -0.802538 0.299736 0.474222 0.304450 0.123915 -0.638528 -0.249679 0.794488 0.226122 -0.553216 -0.091911 0.963418 0.509564 -0.548086 -0.186480 -0.861411 -0.000935 -0.476839 -0.713989 -0.980372 -0.326752 0.338626 0.907640 -0.895317 -0.362442 0.534316 0.509002 0.954785 0.434636 -0.822263 -0.412184 -0.366219 0.128743 -0.919849 -0.132492 0.043442 0.005496 0.352234 -0.614383 0.726209 0.654923 0.085942 -0.861781 -0.635385 -0.454705 -0.812803 0.942947 -0.442728 0.531917 0.619502 -0.830166 -0.087098 -0.555658 -0.373526 0.056136 -0.118756 -0.856989 0.630913 0.639307 0.001043 -0.040258 0.911209 -0.500087 -0.663288 0.463369 -0.433918 0.248502 0.183917 0.596139 -0.398082 0.062066 -0.059644 -0.856524 0.121017 0.666615 -0.594954 0.185279 -0.265662 -0.633376 0.622239 0.809687 -0.706989 0.397828 -0.053652 -0.175392 -0.903532 -0.837001 0.131489 0.499253 0.289503 -0.514882 -0.505955 -0.879844 -0.094125 0.614945 0.998215 0.200731 0.334110 -0.770441 0.513884 0.240682 -0.062293 -0.955945 0.045061 0.103728 0.458661 -0.272082 -0.887285 -0.049807 0.602510 0.242240 -0.902116 0.260730 -0.692724 -0.494158 0.342737 -0.356453 0.214533 0.372321 -0.282455 -0.298764 0.259152 0.628863 -0.714893 0.560631 -0.459522 -0.356567 0.091560 0.059689 -0.318939 0.948788 -0.172764 0.774418 0.839967 -0.062052 -0.099204 -0.258346 -0.068357 -0.185253 0.501915 0.182057 -0.479100 0.288008 0.039742 0.176442 -0.045579 -0.956719 -0.114638 -0.312973 0.939203 0.719800 -0.702817 -0.353984 0.094417 -0.136554 0.107811 0.107615 0.216352 0.370002 0.179336 0.346900 -0.082733 -0.362668 -0.479534 -0.584809 0.757238 0.273955 0.462020 0.662064 -0.991443 0.944726 -0.152585 -0.646947 -0.767654 -0.829451 -0.194434 0.870210 0.749559 -0.556376 -0.927398 -0.651466 0.675493 0.665726 0.437612 0.252340 -0.543273 -0.594361 -0.711527 -0.344519 0.749846 0.385031 -0.973660 -0.551249 -0.314004 0.145947 -0.416119 -0.859550 0.834505 -0.181131 -0.302480 0.419057 -0.582720 -0.113243 -0.779884 0.042716 -0.524555 -0.219144 -0.725424 -0.111762 -0.773043 0.265044 0.602246 -0.192753 -0.680247 -0.838760 -0.761760 -0.581883 -0.886843 0.099348
belief -0.703487 0.589127 0.805765 0.318660 0.011937 -0.047931 -0.554988 0.846124 0.902900 -0.834811 0.486079 -0.094601 0.177044 -0.595327 0.867473 -0.614046 -0.382773 -0.631394 0.298782 0.703939 -0.471214 0.688442 0.053414 -0.591132 -0.960063 0.971319 -0.182260 0.282629 0.334344 -0.587718 -0.082264 -0.044080 0.544247 0.217076 0.644914 0.275211 0.431248 0.029535 -0.128336 -0.887399 0.562856 -0.755241 0.978993 -0.968298 0.743377 -0.093399 0.782017 0.642168 0.991653 -0.355994 0.011131 -0.013116 0.696231 0.294472 0.030347 0.158939 -0.897519 -0.463650 -0.779536 0.947852 0.855254 -0.282311 0.533538 -0.541730 0.413961 -0.807384 -0.149638 0.090965 -0.822541 0.595999 -0.360906 0.815635 -0.131148 -0.284849 -0.268198 0.561583 0.063953 -0.372738 0.926839 -0.247573 -0.798870 -0.117736 0.808683 -0.438750 -0.628867 0.503134 0.929157 0.034624 -0.380774 -0.116859 -0.413826 -0.200994 0.162380 -0.587276 -0.541236 0.313197 0.237252 0.199842 0.513434 0.983259 -0.490771 0.738664 0.499441 0.436085 0.025693 -0.047634 0.544310 -0.869006 0.664617 -0.556745 0.029731 -0.617508 -0.301681 0.085349 0.173885 -0.034926 -0.097839 -0.223583 -0.725690 -0.398421 0.898749 0.929057 -0.374199 0.734290 -0.539093 -0.643644 0.573492 -0.911309 0.972148 -0.502418 -0.486947 -0.148959 -0.113051 -0.118528 -0.174012 -0.383688 0.412886 0.174699 -0.816713 0.799759 -0.209942 -0.917908 -0.521190 0.499713 -0.341395 -0.352097 0.785222 0.364670 0.353043 0.773444 -0.221750 -0.794556 -0.754365 0.621777 -0.368465 -0.471411 -0.644634 0.216618 0.800682 -0.652908 -0.217341 0.102021 0.710832 0.529574 0.465148 -0.854442 0.048257 -0.646439 -0.891171 -0.355635 0.753733 -0.871283 -0.636151 -0.516743 -0.759715 0.553256 0.822745 -0.245688 0.061239 0.640928 -0.476290 0.867667 0.492422 -0.085179 0.167845 -0.379665 0.092357 -0.880599 0.775821 -0.298051 0.002829 0.274348 -0.178677 0.755100 -0.822643 0.824854 -0.438466 0.883762 0.366619 0.146266 0.170082 0.676423 -0.335971 -0.488974 -0.249579 0.091282 -0.913121 0.322530 -0.863847 -0.947040 0.730235 -0.297563 0.700568 0.942766 0.532488 0.012264 -0.852280 -0.155490 0.713977 0.091136 0.573811 0.390427 0.511677 -0.981426 -0.431172 0.776455 -0.857297 -0.599626 -0.641564 0.321050 -0.105513 0.151870 -0.571353 -0.324105 0.762763 -0.917375 0.943958 -0.275176 -0.718830 0.256662 0.494974 -0.922012 -0.544736 -0.833595 0.535562 0.348394 0.849954 -0.665545 0.830785 -0.741193 0.035942 0.323829 0.846199 -0.613902 0.635539 -0.118641 0.827441 -0.161781 -0.065672 0.688238 -0.778791 -0.831004 0.620140 0.486096 0.939985 -0.784135 -0.770204 0.746350 -0.371087 -0.632766 -0.868555 -0.128714 -0.328708 -0.069650 -0.346428 0.971153 -0.301447 -0.110895 -0.670383 -0.701709 -0.932322 0.383681 0.839769 0.312438 0.073526 0.501677 -0.651146 -0.757591 0.119117 0.367324 0.093863 0.997071 0.323993 0.440741 0.864360 0.998149 0.634923 -0.498766 0.965308 -0.512070
friendly -0.505866 0.039456 0.190429 0.265079 -0.900670 -0.961005 -0.439687 0.947994 0.549937 0.771131 -0.255232 0.138850 -0.841127 -0.129562 -0.863793 0.422783 0.089084 0.171456 0.216339 -0.976761 0.321397 -0.261864 -0.606925 0.414320 -0.060318 0.811864 -0.471046 -0.138729 -0.285762 -0.233090 -0.115313 -0.014223 0.790198 -0.746141 -0.123560 0.842211 0.832142 -0.508035 0.979978 0.792381 -0.999350 0.743241 -0.179692 0.015687 -0.016410 0.841698 0.562242 -0.865507 -0.323878 -0.177133 -0.315717 -0.460766 -0.817797 0.350886 0.397529 0.185234 -0.113615 0.889021 -0.642927 -0.602573 -0.177096 0.510450 -0.916195 -0.300159 -0.802769 0.875924 0.701568 0.586311 0.409195 0.799035 0.298595 0.368585 -0.954640 0.793547 -0.506903 -0.072777 -0.634650 -0.207579 -0.403444 -0.717604 -0.958844 0.115475 -0.422146 -0.262016 -0.736457 -0.773421 0.630612 0.780052 0.392698 -0.499246 -0.870170 -0.031273 0.002970 0.263787 0.340115 -0.152393 -0.121394 0.905178 -0.673047 -0.081272 0.741580 -0.897092 -0.524236 0.930449 0.328976 0.609249 -0.329543 -0.842967 0.724738 0.145785 -0.184840 -0.795206 -0.388303 -0.720935 -0.480176 0.974955 0.103229 0.025815 0.407464 0.218785 -0.906024 0.793689 0.257776 -0.089782 -0.617629 -0.003200 0.901435 -0.226470 -0.067445 -0.333322 -0.158364 0.980705 -0.342491 0.571203 -0.431445 0.413395 0.640754 0.868762 0.585649 -0.590178 -0.545533 -0.165001 -0.049910 0.871771 -0.374670 0.558305 0.603792 0.444680 0.118348 -0.796423 -0.194509 -0.368403 0.481059 0.467502 0.228740 0.317091 -0.949415 -0.815527 -0.456192 0.014806 0.925838 0.801257 0.126967 -0.528696 -0.640644 -0.859897 -0.512071 0.843105 -0.446498 0.019475 0.693896 0.583906 0.594695 0.113507 0.591033 0.064660 0.499883 -0.238287 -0.273485 -0.409056 -0.977192 -0.338254 0.669251 0.228903 0.383914 -0.522919 0.700241 0.630831 0.445463 -0.506774 0.066029 0.749733 -0.270924 -0.585571 -0.424229 0.141309 0.288962 -0.987135 0.260410 -0.057489 -0.116253 0.753525 0.337178 0.937453 0.331699 0.836950 -0.564353 -0.879728 0.148416 0.408127 0.920605 -0.414726 -0.085649 -0.984649 -0.388623 -0.979475 -0.371042 0.261775 -0.101015 0.854749 0.387613 0.414564 -0.951036 0.265832 -0.955859 0.595376 -0.228193 0.404242 0.513064 -0.090748 -0.405535 0.284484 -0.534692 0.965203 0.131778 0.351074 0.808737 0.080441 0.520034 0.893854 -0.961060 0.900202 -0.717297 0.171852 0.819477 -0.564232 -0.373634 -0.653002 0.024451 0.778427 -0.959844 0.380032 -0.994718 -0.632175 0.236070 0.933825 0.151676 0.902175 0.943163 -0.054095 -0.244241 0.264109 0.072929 0.175404 -0.663026 0.563995 -0.398445 -0.432468 0.936004 0.863310 0.541946 0.144003 0.678832 0.072277 0.475496 -0.999391 0.913589 0.150156 0.743053 -0.399787 0.170001 -0.094452 0.232115 -0.420685 -0.962368 0.239191 -0.006773 0.283041 0.930888 0.026181 0.628788 0.348865 -0.543714 -0.247276 -0.558595 0.473418 -0.480948 -0.687255 -0.715097 -0.366154
determine -0.006767 -0.849653 -0.049603 0.491452 0.239373 -0.177333 -0.971959 -0.910281 -0.781771 0.425536 0.548391 0.681646 0.276811 -0.253648 -0.675874 0.650459 0.674100 0.256875 0.218670 0.381292 -0.328542 0.414865 0.180156 -0.156563 0.075552 0.603713 -0.656485 0.518121 0.933631 -0.513121 0.777557 -0.281943 -0.231274 0.899865 -0.950741 0.588889 0.969882 0.241265 -0.050664 0.943480 -0.242824 0.641424 0.086979 0.708521 0.455857 -0.327829 -0.238849 -0.186184 0.013805 -0.837552 0.636434 0.020882 0.560123 -0.439773 -0.913653 0.304272 0.364527 0.147811 0.565168 -0.834153 -0.849344 0.488234 -0.904710 -0.661158 0.611123 0.258596 -0.065662 -0.933310 0.108018 -0.343170 -0.154468 -0.465280 -0.419440 -0.401244 -0.435739 -0.382570 0.044943 -0.295447 0.179422 -0.966731 -0.041086 0.881562 -0.044745 -0.580582 0.660756 0.628451 -0.113382 0.463917 -0.425804 -0.983882 0.354301 0.394986 -0.130324 0.573034 -0.929196 0.166387 -0.384663 0.255971 0.357996 0.025582 0.235365 -0.118782 -0.642752 -0.718294 0.077910 0.054244 -0.344863 -0.480920 -0.364535 0.878903 -0.129686 -0.038436 -0.656807 0.343026 0.754339 -0.737771 0.047201 -0.913697 0.610649 0.065374 -0.108348 0.996587 -0.640629 -0.161634 0.911195 0.368080 0.875043 0.843760 0.317177 0.281887 -0.442587 -0.838866 0.204753 0.704838 0.016861 0.242584 0.999151 -0.890215 0.295407 -0.951636 0.360865 0.325191 0.685648 0.767106 -0.109490 0.516427 0.745276 0.115130 0.328682 -0.529498 -0.151491 0.634760 -0.775197 0.123627 -0.115799 -0.278930 -0.209462 0.221694 0.332800 0.837792 0.630642 0.183593 -0.371014 0.943522 0.532144 -0.445305 0.401106 0.337184 -0.251667 -0.842940 -0.863181 -0.722184 -0.058533 -0.902174 0.985676 0.994843 0.793991 -0.622044 -0.153721 0.901940 0.233919 -0.719894 -0.301628 -0.139597 -0.791691 0.031727 0.707551 0.524579 -0.443281 -0.210473 -0.774593 0.492663 0.956606 0.746533 0.555624 -0.271288 -0.176962 0.230601 0.376112 -0.679353 0.193911 -0.350371 0.485633 -0.379784 -0.347433 0.963127 -0.959343 0.314123 -0.242732 0.777740 0.511241 -0.364238 -0.322895 0.535709 0.319039 -0.647042 -0.198088 -0.532802 0.026829 -0.937949 -0.570176 0.719104 0.039308 0.515365 -0.218941 -0.791890 0.986292 -0.788294 0.551724 -0.917514 0.716531 0.225770 -0.486726 0.716077 0.643856 -0.416864 0.461695 -0.478737 0.043282 0.832028 0.527686 0.922354 -0.763081 0.416286 0.947364 -0.630206 -0.443299 0.774190 0.910215 -0.315324 0.351702 -0.155309 -0.671242 -0.293735 -0.733455 -0.319347 -0.912142 0.292965 -0.254607 0.395153 0.815133 0.505837 -0.137754 -0.720462 -0.279212 -0.508268 0.955256 -0.548235 0.201818 0.652585 -0.077288 -0.332178 0.674528 0.973432 -0.275487 -0.158144 0.733638 0.796476 0.549478 0.049220 -0.540308 0.100345 -0.843136 -0.995474 0.336618 0.681872 0.910492 -0.023355 0.364066 -0.972570 0.829911 -0.397838 0.327698 0.506363 -0.499867 -0.362106 -0.226146 0.670147 0.258208 -0.644172
depth 0.528357 -0.732871 -0.747956 0.054871 0.234885 -0.194325 -0.365371 0.156283 0.511466 -0.099508 -0.227527 0.353001 -0.536564 -0.994389 0.133298 0.182466 -0.136990 0.663710 0.301756 0.127247 0.252272 0.320320 0.901939 -0.893587 0.090577 -0.856038 0.620415 0.983522 -0.909446 -0.320103 0.276921 -0.485996 -0.191190 0.830088 0.728550 0.702466 0.745951 -0.015193 0.293719 -0.254589 -0.010538 -0.307780 0.658809 -0.453348 -0.633533 -0.594528 0.629530 -0.050669 0.524070 0.459940 -0.215383 0.326981 -0.096823 -0.094937 -0.002096 0.297556 -0.560962 -0.790190 0.342806 -0.172827 -0.387301 0.996460 -0.117967 0.488720 -0.161910 -0.829384 -0.423438 -0.053399 -0.176284 -0.391087 -0.588924 -0.575379 0.751378 -0.494410 -0.345494 -0.732123 0.968007 -0.819718 -0.557171 0.697889 -0.065507 0.347143 0.770524 0.808720 -0.228537 0.140751 -0.821147 0.309528 -0.658249 0.255874 0.128693 -0.138139 0.239722 -0.386077 0.461629 0.860721 0.104036 -0.443507 -0.748263 0.658224 0.133954 -0.593988 -0.706329 -0.885003 0.811031 -0.912226 -0.672572 -0.898358 0.385315 -0.458438 0.489188 -0.274760 0.216761 0.019557 0.844162 0.310667 0.543569 0.213976 -0.002168 -0.023388 0.501216 -0.827785 -0.315429 -0.357230 -0.408044 0.213038 0.270614 -0.438888 0.908229 -0.855907 -0.340292 0.248906 -0.824653 0.871761 -0.002053 -0.828774 0.749432 -0.546591 -0.928223 0.865101 0.913670 0.205098 -0.820673 0.649771 0.360962 -0.774193 -0.104406 -0.883450 -0.384243 0.355731 0.887700 0.345423 0.435251 0.690780 0.809128 -0.147031 0.064676 0.340443 -0.248698 0.738556 0.637858 0.912511 -0.335505 0.090314 0.627261 -0.635274 0.832455 0.326096 0.691148 -0.088590 -0.105539 -0.700360 -0.429029 -0.916864 -0.720138 0.699536 0.367397 -0.073716 -0.064879 0.647609 -0.983884 -0.632383 -0.556536 -0.596722 -0.442044 0.442510 -0.754035 0.244272 0.673476 0.615300 -0.284849 0.365652 -0.095403 0.483586 -0.269975 0.055728 0.750091 -0.045775 -0.177527 -0.125328 0.414798 -0.356213 -0.543704 0.148975 -0.562361 -0.582415 -0.571996 -0.322628 -0.990289 -0.547651 -0.085066 -0.253477 0.928667 -0.802978 0.707384 -0.159294 -0.062540 0.370049 -0.373589 -0.868573 0.032888 0.261403 -0.855682 0.023420 -0.691678 0.787632 -0.175001 -0.409727 -0.195805 0.928576 0.129136 0.609136 0.838318 0.520698 -0.118037 -0.824026 -0.225506 0.200767 -0.100068 -0.759887 0.970277 0.758508 -0.019848 -0.314454 0.239049 -0.853711 0.008488 -0.885878 -0.087111 -0.065171 -0.111514 -0.202119 0.514302 0.584428 0.628988 0.910076 -0.067437 0.319379 -0.804293 -0.248530 -0.448600 -0.726804 0.798045 -0.939399 -0.017059 0.267608 0.896426 -0.708587 0.838970 0.941604 -0.802957 0.500658 -0.824574 0.993633 0.627149 -0.628697 0.925595 0.774539 0.107528 0.453337 0.881308 -0.538661 0.627124 -0.134290 -0.487379 0.181316 -0.417931 0.939137 0.806220 -0.384910 -0.994531 0.204942 -0.803196 0.110410 -0.256453 0.121454 0.899558 -0.865181 0.678664 0.507329
give -0.219783 0.883064 -0.793070 -0.746094 0.042134 0.428509 -0.924093 0.771227 -0.176655 0.686137 0.560271 0.906292 0.858226 -0.650652 -0.895749 0.401025 -0.460174 -0.294944 0.747436 -0.042913 0.727635 -0.980502 0.887435 0.091067 -0.131711 -0.176046 0.187737 0.782672 0.976396 -0.364505 -0.446921 0.159398 -0.321350 -0.810253 0.683272 0.220463 0.609490 0.999446 -0.291133 -0.152662 0.633769 -0.800703 -0.340179 0.432156 0.843715 0.913179 -0.213865 0.680791 0.702851 0.098792 -0.853372 -0.662186 0.888855 -0.185377 -0.742238 -0.568648 -0.659376 0.317524 0.567170 0.171200 -0.902549 0.402854 0.670874 0.698059 0.558235 -0.332329 -0.140087 -0.475580 -0.207477 -0.616160 -0.438938 -0.403647 0.946338 0.500163 0.715940 -0.165269 -0.367582 -0.222304 -0.823313 -0.290336 0.330166 -0.364744 -0.070577 0.409079 -0.518360 0.063372 0.838745 0.816029 -0.840106 -0.927401 0.277974 -0.783360 0.532788 -0.236251 0.030685 0.050130 0.450735 0.247268 -0.367389 -0.121867 -0.782927 -0.366324 -0.505825 0.576001 -0.766939 -0.204624 0.941561 0.783892 0.011495 0.083967 -0.357325 0.116813 -0.267333 0.567688 -0.960775 0.481202 -0.101629 -0.394126 -0.394246 0.329795 -0.946872 -0.142255 -0.310656 0.781353 0.252319 0.624928 -0.477007 -0.044837 0.551108 -0.742339 -0.009647 0.234744 0.678909 0.100937 -0.788428 0.145932 -0.251059 -0.604208 0.816171 -0.262280 -0.451875 -0.588018 0.795362 0.501129 0.324323 0.823280 0.163195 0.879966 -0.902433 0.900397 -0.032445 0.784200 0.435797 0.742865 -0.658712 0.460753 -0.210274 0.064296 0.473437 -0.434602 0.529493 0.414961 -0.091472 0.551744 0.320619 -0.535113 0.822413 0.908898 -0.197671 -0.717495 0.080215 -0.446518 -0.778639 -0.816138 0.868950 -0.653828 0.299927 -0.331599 0.637867 -0.451103 0.558472 -0.251866 0.497673 -0.835967 0.342004 0.654906 0.227189 -0.199615 -0.535893 -0.737770 0.718766 -0.624831 0.699215 -0.738291 0.959027 -0.818121 -0.668925 -0.402990 -0.837587 0.135208 0.554044 0.113719 0.374674 -0.721687 -0.222702 -0.799779 -0.034287 -0.964571 0.445523 -0.908358 0.544685 0.540598 0.858154 0.618378 -0.541954 0.647490 -0.511879 -0.540952 0.712459 0.641569 0.926625 0.410384 -0.747749 0.750250 0.155748 -0.327084 -0.954589 0.565859 0.419472 0.074039 -0.598375 0.975669 0.271658 0.182113 -0.372436 -0.190509 0.008355 -0.045178 -0.942805 0.828289 -0.879785 -0.061584 0.814828 0.151783 -0.566109 0.353977 0.689787 -0.375109 0.601694 0.293160 0.770288 0.244517 -0.732140 -0.585252 0.543306 0.074027 0.474751 0.725520 0.410474 0.374927 0.354777 0.337942 -0.776232 -0.660709 -0.636969 -0.696817 -0.789020 0.411135 0.270560 -0.254656 0.961468 -0.901351 0.011790 0.057533 0.013423 0.316550 -0.020372 0.317851 0.334495 0.262892 -0.217767 -0.960089 -0.618795 0.347816 0.411665 0.139483 0.893298 0.507914 0.392805 -0.668414 -0.618217 -0.125617 0.110373 -0.574321 -0.473398 -0.978827 0.896126 -0.427540 0.563808 0.734533
beer -0.633787 -0.003477 0.939437 0.137809 -0.477384 0.034853 0.424038 -0.868023 0.219004 0.109975 0.644741 0.742163 0.670987 -0.162694 0.584555 -0.282557 -0.546743 -0.410910 -0.400574 0.329987 -0.366100 0.120295 0.659036 -0.261863 0.269018 0.571003 0.258266 -0.736528 -0.094404 0.470719 -0.484268 0.286170 0.674577 -0.010990 0.559994 0.736155 0.257936 0.815075 -0.930692 0.189176 0.514202 0.517496 0.901524 -0.260252 0.987258 -0.191072 -0.381190 -0.132120 -0.351590 -0.498982 -0.540008 0.197236 -0.775438 0.168033 -0.203592 0.817647 -0.143881 -0.491617 -0.844910 -0.784544 -0.046974 0.303589 -0.358956 0.297769 -0.862277 -0.290283 0.933306 0.913056 -0.948091 0.273894 0.531940 0.190843 -0.392805 -0.662700 0.828331 -0.937881 -0.095204 -0.825582 0.718832 -0.562917 -0.049933 0.363218 0.897324 -0.450621 0.189492 -0.353783 -0.684291 0.537859 0.483599 0.277466 -0.395814 -0.868880 0.161079 0.394625 0.175976 0.446046 -0.858300 -0.126871 0.003176 -0.796456 -0.002425 0.474112 -0.509399 0.223703 0.977990 0.091231 0.385513 0.315410 0.543539 -0.577864 -0.505160 -0.988065 0.771667 0.127346 0.918013 0.312725 0.437029 0.910475 -0.049498 0.845607 0.330354 0.377017 -0.907541 0.430504 -0.478058 -0.681337 -0.895895 0.667903 -0.997171 0.902009 0.364556 0.919988 0.918841 0.442871 -0.691337 -0.186182 -0.346664 -0.497739 -0.317000 0.871789 -0.365491 0.579093 -0.934557 0.006317 0.198515 0.936784 0.886596 -0.763272 -0.563380 -0.086003 -0.059818 -0.785771 -0.272486 0.638219 0.104786 -0.599668 -0.515477 0.664694 0.544849 -0.402465 0.832106 0.871377 -0.971212 -0.868723 0.820231 -0.110805 0.937474 -0.923918 0.516670 -0.839726 0.946022 -0.949967 0.136927 -0.009970 -0.505576 0.223246 -0.073998 -0.184609 0.750368 -0.837634 -0.234089 -0.479559 0.932829 -0.694635 -0.813593 0.341681 -0.167162 0.523272 -0.801894 -0.864073 -0.844349 -0.557840 0.161853 -0.069012 0.832374 -0.283495 -0.803224 -0.541687 0.683583 -0.181625 0.781512 -0.297114 0.914597 -0.244500 -0.672211 0.687146 0.249210 -0.399493 0.211638 0.979120 0.332417 -0.264637 -0.644113 0.914759 0.833195 0.015206 0.018527 -0.570639 -0.656151 -0.595240 0.512920 0.950247 -0.681084 -0.389918 -0.374465 -0.892972 0.327579 -0.882197 0.464414 -0.932610 -0.972236 0.091694 0.479254 -0.599657 0.098402 0.576138 0.913527 0.425850 0.384702 0.814720 -0.958664 0.827766 0.524513 -0.778232 0.899584 -0.270937 -0.121990 0.923536 -0.023590 0.132939 -0.030417 0.744541 0.156741 -0.954094 -0.291614 -0.135648 -0.686303 0.497183 0.216605 -0.596412 -0.751327 0.260678 0.859048 0.701617 0.757516 -0.688922 0.597574 -0.794719 -0.015151 -0.308723 -0.712642 -0.389216 0.795689 -0.074559 0.377645 0.272013 -0.360278 -0.811367 -0.605530 -0.691430 -0.568531 -0.121406 -0.998923 -0.876286 -0.977127 0.363002 0.210633 -0.505836 0.189283 -0.362651 0.940363 -0.117335 0.139267 -0.151266 -0.164724 0.636049 0.430328 -0.947526 -0.965521 -0.564484
purse 0.581842 0.988483 -0.304162 -0.124833 -0.270826 0.809543 0.595231 0.112047 0.988784 -0.259730 0.548059 -0.056026 -0.856579 0.220996 -0.391362 0.601582 0.955652 -0.540128 -0.630860 -0.974162 0.703793 0.665501 0.262997 0.864655 -0.417461 0.652656 0.644690 0.298136 -0.083929 -0.115584 0.742774 -0.002000 0.239608 0.333010 0.830341 -0.755240 0.241523 0.829087 -0.602006 -0.742948 -0.511827 0.676928 -0.927141 -0.895473 -0.027827 -0.244741 0.288179 0.091667 0.365642 0.492728 0.443305 -0.460315 0.437208 -0.624678 -0.348809 -0.671741 0.269192 0.829484 0.805160 0.032112 -0.193087 0.202948 0.966697 -0.519607 0.291148 0.145964 -0.687857 -0.781427 0.646048 -0.332787 0.160370 0.291854 -0.577761 -0.990443 0.910360 0.929376 0.716401 0.539911 0.924126 0.899206 0.854320 0.293648 -0.630664 0.979696 0.004327 -0.068628 -0.402651 -0.774373 0.252877 -0.648415 0.490062 -0.541553 0.294166 -0.925562 0.402587 0.328125 0.337651 -0.884806 0.169587 -0.970690 0.941720 -0.663751 0.506099 0.838882 0.639026 0.769334 0.633489 -0.874404 -0.836284 0.114712 -0.759039 0.797791 -0.085544 0.738745 0.993223 0.195257 -0.180552 -0.392835 0.867902 -0.589722 -0.220397 0.194580 0.971967 0.129657 -0.908903 0.276450 0.633789 -0.096197 0.233662 0.592571 0.717735 -0.323135 0.550545 0.075379 0.604132 0.212585 -0.477273 0.338217 0.459853 -0.385750 -0.013497 -0.406927 0.818257 -0.464347 0.449213 0.505376 -0.797832 0.605623 0.142169 -0.623624 0.920889 0.226924 -0.644474 0.995825 0.898492 -0.040290 -0.567719 0.642815 -0.325954 0.906470 0.353326 0.295735 -0.725261 0.124566 -0.242371 -0.747604 0.719182 0.157742 0.597153 0.223405 0.553997 0.745789 0.088252 -0.820533 0.650531 -0.606751 -0.189971 -0.129874 0.668164 -0.585784 0.392747 0.050880 0.154932 -0.366678 -0.967466 -0.360819 0.810601 0.267492 -0.591413 -0.676383 -0.888068 -0.321959 0.579951 -0.576691 0.759323 -0.408908 -0.988129 -0.866598 0.142022 -0.434959 -0.600814 -0.986451 0.500834 -0.315966 0.251691 -0.833752 0.762223 0.685972 0.090228 -0.049265 0.681172 0.829315 0.078384 0.927762 0.261056 0.275652 0.223288 -0.400261 -0.378819 0.462513 0.819681 -0.686303 0.772797 0.443620 0.655069 0.730824 -0.825072 0.637266 -0.916763 -0.234796 -0.653783 0.318690 0.885518 0.645578 -0.109942 -0.420449 0.331248 0.727898 -0.680936 0.684765 -0.262178 0.588212 0.398073 -0.358739 0.354576 -0.412878 0.265139 -0.073075 0.356274 0.980266 -0.137558 -0.879573 0.938124 0.145378 -0.596776 -0.250697 0.725698 0.335922 0.877848 -0.425294 0.742125 0.245316 0.574394 -0.338889 0.259555 0.918055 0.833970 0.105552 -0.956448 -0.176122 0.186471 0.080593 -0.644142 0.975669 -0.760812 0.507968 -0.707464 0.000996 -0.191655 -0.220528 -0.800029 0.305934 0.951955 0.081906 0.159261 -0.708753 0.541072 -0.388593 -0.913691 -0.545333 -0.168822 0.058248 -0.221381 0.846503 -0.974258 0.675382 -0.152736 -0.237234 0.179086 0.922632
easy 0.921265 -0.201218 -0.620621 0.178515 0.102691 -0.748362 0.013968 0.115694 0.594036 0.615058 0.386421 0.971138 0.238993 -0.264179 0.612177 -0.665883 -0.694036 -0.115751 0.304425 0.637471 -0.965823 0.473526 -0.446459 -0.524144 0.231630 -0.633996 -0.394865 -0.299737 0.164614 0.904014 0.720909 -0.561930 -0.938911 0.688516 -0.842788 0.764440 -0.338830 0.878025 -0.365313 -0.196650 -0.078550 0.884339 -0.529226 -0.625892 0.048843 0.638974 0.555023 -0.239393 -0.277010 -0.476413 -0.828761 -0.554132 0.122269 -0.008369 0.210028 -0.335268 -0.696647 0.959872 0.087637 0.821035 0.011843 0.290274 0.883091 -0.818147 0.601659 0.294738 0.095322 -0.597500 -0.761775 0.047177 0.757060 0.911547 -0.543751 -0.533616 0.994248 0.317509 0.692199 0.884127 -0.619024 -0.995849 0.155703 0.782508 0.835699 -0.777379 -0.241387 0.165327 -0.777206 -0.414417 -0.096015 0.464332 -0.683251 -0.462355 0.292704 -0.278069 -0.159980 0.321565 -0.560238 0.361620 0.313209 -0.914126 -0.897390 0.426137 0.755085 0.270502 -0.697818 0.631351 0.519912 0.396768 -0.374783 -0.890789 -0.447616 0.284084 0.758878 0.564338 -0.162952 0.761839 -0.584884 0.080619 0.346717 -0.037546 0.857533 0.798401 -0.760367 0.777266 -0.071023 -0.827631 -0.478107 0.571816 0.924706 -0.573894 -0.062388 -0.474885 0.093111 0.128979 -0.971664 -0.874968 0.434667 0.287305 -0.431958 -0.511186 -0.900352 -0.171525 -0.958151 -0.152151 -0.905674 0.392244 -0.726797 0.984689 0.870819 -0.540138 -0.869168 -0.591987 0.891087 -0.502672 -0.565007 -0.525467 -0.125092 0.467892 -0.633244 -0.633332 0.754328 0.254165 0.275510 0.725058 -0.708243 -0.330869 -0.639708 -0.041463 -0.361868 -0.332532 0.757702 0.632872 -0.059953 -0.552031 -0.360958 0.926764 0.257274 -0.781210 0.387767 0.316455 -0.338068 0.782749 -0.442827 0.759002 0.106886 0.128467 0.423627 -0.477858 0.220384 -0.742857 -0.454376 0.347092 -0.744040 0.197612 0.643219 -0.663940 -0.848722 -0.841587 -0.651619 -0.904484 -0.909190 -0.173625 -0.752321 0.647681 0.300080 0.721574 0.416660 0.092646 -0.423760 -0.483557 0.547197 -0.364038 -0.549849 -0.283473 0.470568 -0.401907 0.395153 0.097571 -0.248197 0.845493 0.592931 -0.790499 -0.144784 -0.950507 0.599356 0.832394 0.474383 -0.388488 -0.876930 -0.747684 -0.174744 0.060230 0.619735 -0.510738 0.583474 -0.765786 -0.313731 0.766904 0.280024 -0.422243 -0.086521 0.411906 0.823165 0.331663 -0.581194 0.797901 0.719014 0.708448 0.296009 0.228464 0.054502 0.411253 0.276657 -0.031602 0.915761 0.018906 -0.051793 -0.486444 -0.476508 -0.598243 -0.430666 0.722292 0.766779 0.071893 0.068721 0.320483 -0.369491 0.212664 0.537070 0.153633 -0.697798 0.207135 0.739936 0.147320 -0.096870 -0.176331 -0.414256 -0.644571 -0.667682 -0.234881 -0.082546 -0.216091 0.506164 0.005631 -0.270368 0.823674 -0.711780 0.691889 -0.577230 -0.361003 -0.754026 -0.510851 0.208406 0.163877 -0.019539 0.622552 0.724083 0.788055 -0.805461 -0.044477
boy -0.998766 0.451802 0.211442 0.375937 -0.480536 -0.679692 0.637141 0.212793 -0.614604 0.237159 0.565571 0.150013 0.853038 0.909394 -0.504529 0.928665 0.741882 0.996860 0.697361 -0.183677 0.830271 0.521295 -0.270819 -0.820507 0.341757 0.623585 0.820400 0.406207 0.390563 -0.127278 -0.063628 -0.562396 -0.945422 0.576692 -0.396035 -0.317057 -0.482338 0.937600 -0.764203 -0.632646 -0.414702 0.590505 -0.905602 -0.891689 0.343481 -0.315159 -0.936440 -0.216936 -0.821446 -0.795440 -0.491965 0.582396 0.227286 -0.682840 -0.406098 0.251651 0.050378 -0.807089 -0.802689 -0.253504 0.213024 -0.047386 -0.194470 -0.016539 -0.368006 -0.370724 0.242920 -0.754163 0.361301 -0.668960 0.204293 0.070596 0.487044 -0.039207 0.723719 -0.789962 -0.517455 -0.028907 -0.467466 0.626529 0.270018 -0.708373 -0.254922 -0.690721 0.582206 0.388403 0.619138 0.716180 -0.816080 0.182424 0.585082 0.367481 -0.779364 0.418967 0.137358 0.060320 -0.149726 -0.037279 -0.478548 0.751316 0.032609 -0.616276 0.919737 -0.354647 0.821213 0.648348 0.710560 0.595754 0.392617 -0.566802 -0.924041 0.593686 0.308621 -0.780440 0.314375 0.229876 0.778448 -0.507111 -0.844338 0.860799 -0.121146 -0.838142 -0.711165 -0.458974 -0.368357 -0.682965 -0.571598 -0.872885 -0.922056 -0.101299 -0.969674 -0.414383 0.744839 0.467061 0.518352 -0.238150 0.079535 0.859494 -0.956668 -0.212074 -0.578650 -0.068672 0.887089 -0.822969 0.596367 0.446920 0.820103 -0.366230 -0.169523 0.224136 0.509966 0.853418 0.974714 -0.627083 0.798578 -0.920603 -0.019632 0.454422 -0.478757 0.945063 -0.493804 0.399630 0.096611 0.607960 -0.276514 -0.655499 0.495957 -0.808118 -0.498454 -0.472652 0.803128 0.088278 -0.291663 -0.572063 -0.745341 -0.070709 -0.416682 0.633098 0.466281 -0.246305 -0.234900 -0.707481 0.005754 -0.537959 0.240768 0.620408 -0.530291 0.077306 -0.760457 0.656338 0.646827 -0.046862 -0.068714 0.887569 -0.004924 0.233674 0.745008 0.100201 -0.044177 -0.996290 -0.825131 -0.126630 -0.750406 -0.019142 -0.682939 -0.498083 0.548881 0.862120 -0.151901 -0.279938 -0.235879 -0.452923 0.850285 0.496083 -0.626834 -0.779291 0.801421 -0.806218 -0.113232 -0.937650 0.001593 -0.514786 0.121172 -0.260190 0.342897 0.479953 0.650388 0.776963 -0.048923 0.450630 0.956333 0.768364 0.354776 -0.475125 0.931219 -0.004433 -0.392306 -0.496875 -0.415051 -0.179159 0.211657 0.534944 0.370744 0.752775 -0.910759 0.538457 0.024188 -0.442645 -0.236783 0.254370 0.613661 0.947917 -0.867309 0.290489 0.445928 -0.204898 0.761000 0.192105 -0.175482 -0.765131 0.469685 -0.056995 -0.683749 0.867716 0.979919 0.629264 0.316479 -0.848382 0.699062 0.444422 0.536677 -0.825392 0.072365 -0.809785 0.802547 -0.614035 0.505493 -0.124413 -0.419614 -0.854066 -0.371364 -0.633266 0.300338 0.011297 0.316002 0.919454 0.484735 0.268801 0.010247 -0.354404 0.547374 -0.261195 0.240443 0.969598 -0.249582 0.730856 0.989551 0.376859 -0.206063 0.051349
dad -0.344690 0.081725 -0.599262 0.874268 0.367798 0.095711 0.750767 0.999553 -0.706867 -0.123931 0.148055 0.729666 -0.698978 -0.707480 0.720198 0.391576 0.967520 0.633770 0.944527 0.366455 -0.501944 0.713918 -0.277458 0.279212 0.723667 -0.705646 0.748718 0.720479 0.700695 -0.656816 0.388423 0.474448 -0.670817 0.661885 -0.005131 0.871035 0.647308 0.920215 -0.682364 -0.385309 -0.739537 0.647206 -0.252914 -0.093622 -0.413795 0.153674 0.110971 -0.041893 -0.043037 0.825676 -0.751113 -0.129838 0.506723 -0.770273 -0.008607 -0.327013 0.002109 0.827056 -0.502775 -0.617851 -0.842725 0.600971 0.952155 0.063468 0.093544 -0.015382 0.204984 -0.871683 -0.759382 0.611239 -0.937947 0.570983 0.325167 -0.896628 0.802229 -0.397241 0.913639 -0.934710 0.774610 0.866768 -0.361450 -0.556234 -0.116004 -0.300020 -0.613830 0.229299 0.542309 0.741719 0.032774 -0.788368 0.483534 -0.928882 -0.466325 -0.446323 0.413425 0.781312 0.689569 -0.055535 -0.055885 -0.691455 -0.622111 0.549040 0.517424 0.307381 0.035930 -0.863008 -0.058167 0.354549 0.905958 -0.797553 -0.121546 0.713961 -0.730967 -0.965050 0.816783 0.774848 -0.609201 -0.952372 -0.261974 0.318960 0.192294 -0.457299 0.595990 -0.201695 0.460296 0.161024 0.802012 -0.061487 0.007558 0.362933 0.555676 0.268677 0.766312 -0.668045 -0.870264 -0.914543 -0.854823 -0.896160 0.081478 -0.777306 0.907406 0.027789 0.567977 0.999787 -0.472527 -0.388862 -0.506965 -0.681787 -0.747915 0.453355 -0.156492 -0.698140 0.676833 0.638079 -0.309469 0.766024 -0.174804 -0.259290 0.579232 0.759967 0.920728 0.096813 0.093433 0.161701 -0.581102 -0.529639 0.509609 0.935682 0.745827 -0.792520 -0.431052 0.016736 0.168901 0.101762 -0.950843 -0.323826 0.039739 -0.866786 0.337037 0.354460 -0.652169 0.501466 -0.821578 0.932156 -0.419630 -0.205959 0.236923 0.794454 -0.973237 -0.103770 0.238373 -0.648025 -0.359172 -0.578788 -0.785626 -0.305271 -0.735918 0.789989 -0.768048 0.341584 0.785235 -0.816277 0.158985 0.682307 0.193263 0.438696 -0.034176 0.177376 0.000182 -0.391081 -0.241357 -0.639867 0.097539 -0.517221 0.141118 -0.572307 -0.161365 -0.601621 0.136690 0.187221 0.981374 0.651275 0.283825 -0.954154 0.350282 0.101723 -0.928607 0.214061 0.275568 0.644230 0.687523 -0.956635 0.446516 -0.302491 -0.035524 0.368207 -0.326865 0.039347 0.398427 0.749437 0.171848 -0.406470 -0.607010 0.281453 0.443631 0.896953 0.142298 0.320679 0.904735 -0.478992 0.349723 0.078147 -0.750549 -0.735367 0.507213 0.196949 0.128053 0.193843 0.083523 0.220014 0.442369 0.298343 0.777479 -0.636910 0.891491 -0.144957 -0.007200 0.078826 -0.156320 0.306368 -0.283312 -0.484058 0.257235 0.645011 0.690347 -0.770028 0.892951 -0.109826 -0.060338 0.654645 -0.758632 0.822348 -0.216938 -0.059658 0.974408 -0.998934 0.678194 0.539126 0.611974 0.381831 -0.702126 -0.064371 0.493409 0.086016 0.071223 0.003880 0.971392 -0.783275 -0.843998 -0.402626
bird 0.895388 -0.413886 -0.645006 0.925059 -0.260286 -0.446993 0.024448 -0.129876 -0.783650 0.262265 0.939032 -0.578528 0.077736 -0.491203 0.398251 0.043563 -0.383273 -0.622040 -0.369124 0.239807 0.404762 0.277799 -0.893355 0.933199 -0.268035 -0.569086 0.583532 0.279807 0.534761 -0.007684 0.861570 -0.364913 -0.718270 -0.127874 0.269197 0.278424 0.891072 -0.987983 0.492961 0.706807 0.556643 0.439754 0.047674 -0.212174 0.526265 0.500256 0.738032 -0.519232 0.515553 0.803789 -0.801341 0.139133 -0.751013 0.598743 0.975190 -0.289983 -0.348596 0.060754 -0.640778 0.239591 0.460192 -0.723790 0.509584 0.295649 -0.001867 -0.477940 0.355800 -0.713000 0.080594 -0.235947 0.507387 -0.489935 0.998710 -0.682655 0.053793 -0.988834 -0.420995 0.515971 -0.147308 0.302202 -0.477305 0.473694 -0.945955 0.926696 -0.632262 -0.754339 0.399133 -0.984425 0.418939 0.355090 0.014587 0.011728 0.913577 -0.628552 -0.431976 0.910677 0.629039 0.366732 -0.614990 -0.074992 0.208549 0.930852 -0.744818 0.829699 0.235470 -0.559208 0.798522 0.252553 -0.024721 -0.486475 0.005612 -0.308397 0.295094 0.375019 0.346199 -0.099286 -0.997581 0.310063 0.960941 -0.433338 0.260548 0.475581 -0.796914 0.993901 -0.011833 -0.560351 -0.217772 -0.871308 0.085757 0.485374 -0.096930 0.898088 -0.319066 0.066603 0.746427 -0.738529 -0.292972 0.958889 -0.441018 -0.894340 0.983311 -0.901055 -0.859985 0.477588 -0.230929 0.036267 -0.684481 0.167010 0.764718 0.616064 -0.551422 0.360093 -0.146921 0.380614 0.281166 -0.831725 -0.761960 0.066510 0.889216 -0.604613 -0.418340 -0.583571 -0.292986 0.793557 -0.546583 -0.296239 -0.475729 0.987788 0.964302 -0.515250 0.806966 0.019010 0.923868 0.078406 0.535366 -0.304576 -0.099271 -0.569321 0.293781 -0.611261 0.769714 0.945209 -0.480785 0.545322 -0.220439 -0.054846 -0.744610 0.284211 -0.057014 -0.294634 0.107062 -0.521431 0.662558 0.723900 -0.020632 0.939338 0.770003 0.479911 -0.924517 -0.426057 -0.883252 0.435459 0.170328 -0.747097 -0.318126 0.088886 -0.802626 -0.424456 0.794436 -0.875395 0.663223 -0.152798 -0.612225 0.186748 -0.273144 -0.522427 -0.376034 0.129477 -0.879183 0.983782 -0.204204 0.628662 0.686465 -0.913361 -0.087226 -0.562315 0.634713 0.245104 -0.780215 0.241048 0.184570 -0.051236 0.084632 -0.135718 -0.235426 -0.966185 -0.623919 -0.494531 0.228805 0.121541 0.494768 -0.532673 -0.430342 0.194026 0.192733 0.111910 0.321792 0.554669 -0.454109 -0.237773 -0.329077 0.448433 -0.871414 -0.134450 0.672176 0.406544 0.812267 0.135206 0.265429 -0.269590 -0.977651 0.026074 -0.097031 -0.792131 0.561710 -0.676497 0.926683 -0.226510 0.010302 -0.782076 0.297831 -0.001356 0.127890 -0.359134 -0.741170 0.946411 -0.426496 0.980349 0.152227 0.484518 0.105796 -0.845733 0.790639 -0.299620 0.540583 0.085252 -0.491163 -0.945157 -0.653131 0.712746 0.825220 -0.866380 0.311809 0.878841 0.661984 -0.195815 -0.161565 -0.413495 -0.456494 -0.343597
bed -0.646064 -0.821003 -0.797164 0.131910 -0.243465 0.702069 0.159318 0.953221 0.043270 0.541000 0.397651 -0.609956 0.437005 -0.379616 -0.187515 -0.768454 -0.162046 -0.711457 0.265988 -0.215672 0.797885 -0.021188 -0.907967 0.078799 0.232968 0.159944 0.467827 -0.925702 0.927892 0.380505 0.303460 -0.060732 0.379254 -0.005467 0.714892 -0.883595 -0.473618 -0.167890 0.001147 -0.143075 0.377321 -0.672648 -0.745388 0.704296 -0.510364 0.074672 -0.447858 -0.910931 -0.983454 -0.012069 0.887011 -0.408527 -0.718575 0.064937 -0.722579 -0.778188 -0.047389 -0.152582 0.764948 -0.362003 0.770883 0.057974 0.396120 -0.225943 -0.473332 -0.943298 0.696173 0.321124 -0.198384 0.824135 -0.388918 -0.943989 -0.755609 -0.241340 -0.654026 0.810550 0.431979 0.169106 0.281251 0.441133 -0.324998 -0.981445 -0.136486 -0.170266 0.783817 -0.601502 -0.411654 0.549048 0.313919 -0.767659 0.595005 0.574297 -0.560597 0.308286 0.333129 -0.305865 -0.043662 -0.856573 0.612172 0.085344 -0.996207 -0.572552 -0.152758 0.610313 0.723916 0.154730 -0.271597 0.771183 -0.999854 -0.124407 -0.924177 -0.750297 0.878146 0.592402 -0.344445 -0.586791 -0.138440 -0.798743 -0.299092 0.342333 -0.685867 -0.452316 -0.782890 0.032784 0.919773 -0.198483 -0.419610 0.430837 0.437415 0.191715 0.050068 0.892122 0.470176 0.636769 -0.928422 0.855102 0.616970 0.940880 -0.367597 -0.624301 -0.475127 0.288648 -0.431748 -0.346540 -0.704521 0.317170 0.616093 0.145606 -0.648402 0.225114 0.063959 -0.274400 -0.287118 -0.097841 0.322518 0.690205 0.795605 -0.502836 -0.526402 0.678955 -0.902835 0.304500 -0.407835 -0.280149 -0.159970 0.668540 -0.478246 -0.556750 -0.680943 -0.758217 -0.081285 0.805022 0.240590 0.903061 0.360105 -0.010695 -0.447392 0.350447 -0.305781 -0.840380 -0.504586 0.073922 0.201653 -0.027598 -0.043210 0.804585 -0.403330 -0.770788 -0.331965 0.801599 0.366495 0.270642 0.101830 0.408860 -0.529412 0.453306 -0.697438 -0.062507 -0.308800 0.125679 -0.017833 -0.059177 -0.306041 0.011201 0.785219 0.116440 0.526467 -0.782975 0.012885 0.849989 0.034539 0.304519 0.421904 0.919979 0.353670 0.577549 -0.453319 0.626571 -0.558273 -0.570590 0.311864 0.872276 0.077635 -0.034687 0.060872 0.108782 0.869669 0.765588 -0.868557 0.767173 -0.695134 0.618322 0.275792 0.329242 -0.427775 0.128246 -0.024789 -0.440084 0.620534 -0.820643 0.158594 0.167617 -0.650300 0.174952 -0.460563 0.301436 0.736023 -0.898416 0.976655 0.629606 0.397576 -0.048611 -0.484802 0.125899 -0.088192 0.286718 -0.672586 -0.594574 -0.135338 0.721281 -0.547802 -0.285286 0.190630 0.857240 0.312028 0.440800 -0.708671 0.773024 -0.683961 0.208295 -0.911420 -0.301890 -0.083162 -0.410776 -0.270243 -0.932321 -0.471924 -0.578942 0.122828 0.113901 0.660133 0.326929 -0.058584 -0.030705 -0.813652 0.687883 0.091008 0.206208 0.036880 0.877002 0.933426 -0.219865 0.719914 -0.365171 0.440164 0.894629 0.560603 -0.205621 0.475162 -0.606959
body 0.621892 0.563077 0.751399 -0.574777 -0.812467 0.080225 -0.210297 -0.036699 0.241120 -0.109753 0.516907 0.239633 0.830380 -0.370039 0.530078 -0.359185 -0.300158 0.882722 0.289917 0.221889 -0.617288 0.072597 0.941015 0.208562 -0.452377 0.691747 0.679031 -0.429315 -0.122295 0.202022 0.061132 -0.649135 -0.699245 -0.275008 0.155602 -0.343497 0.664666 0.348763 0.574958 0.069889 -0.118613 -0.724394 -0.510981 -0.933669 0.698830 -0.568171 -0.567568 0.960895 -0.881287 -0.662015 -0.999991 0.341881 0.297103 -0.633834 0.334527 -0.108956 -0.241909 -0.249319 0.265985 0.046083 -0.372956 -0.963661 -0.708902 0.036543 -0.281436 -0.257407 0.700809 -0.722560 0.690838 0.372678 0.645227 0.788791 -0.062163 -0.489809 0.936874 -0.461996 -0.439283 -0.135943 0.944579 0.657458 -0.608688 0.602333 0.385811 0.021517 -0.236071 -0.370679 -0.250857 0.558799 -0.059371 0.910411 0.999654 0.545443 -0.670027 0.832699 -0.756863 0.642123 -0.674665 -0.484512 0.723223 0.025097 0.592184 0.536086 0.583825 -0.376573 0.084085 0.139015 -0.743415 0.003319 0.081831 -0.031456 -0.566920 0.686465 -0.816103 -0.556762 0.952833 0.677681 -0.830776 0.379520 -0.683492 0.829416 0.887032 -0.394208 -0.172214 -0.525316 0.873915 -0.216893 0.688973 0.245863 -0.090503 0.208295 0.941420 0.984794 -0.156039 0.462593 -0.552637 0.836345 -0.764918 0.991550 -0.327991 -0.896565 -0.825406 -0.967385 0.518469 -0.632870 -0.005265 -0.046572 0.105394 0.023077 -0.411418 0.286422 -0.392248 0.880156 0.036374 0.098892 -0.113851 0.144390 0.287071 -0.333529 -0.729297 0.704830 0.989858 -0.130337 0.428818 0.443451 0.319053 -0.174407 -0.622968 -0.387405 0.514296 -0.532447 -0.901793 0.016586 0.653090 0.523108 0.111937 0.790121 0.304085 0.182519 -0.703378 0.649317 0.951360 -0.532309 -0.477485 -0.768210 0.161029 0.672525 0.056576 0.771837 -0.746758 -0.268395 0.303402 0.802789 -0.644905 -0.365708 -0.891184 -0.021027 0.530860 -0.764794 -0.484077 0.933038 0.769642 0.031689 0.227153 0.707766 0.175528 0.158485 0.261163 0.624947 0.661717 0.313309 -0.823330 -0.170202 0.190478 0.298482 0.236297 -0.406053 -0.675147 -0.349477 0.840782 -0.866719 0.966945 0.620989 0.677987 -0.266905 0.282075 0.323166 0.340089 -0.661524 0.051125 0.386032 -0.795946 0.522620 0.236392 0.261600 -0.044206 0.203323 0.351675 -0.388852 -0.148606 0.434134 0.676905 0.885426 0.024968 0.979911 0.526864 -0.165920 0.697302 0.250418 0.072129 -0.005232 -0.808780 -0.953467 -0.704286 0.195287 -0.617762 0.966951 -0.610473 -0.888734 -0.177471 -0.280473 0.780790 -0.439332 0.088421 0.685866 -0.489948 -0.200845 0.616898 0.874425 0.145987 -0.553492 0.725286 -0.735008 -0.257794 -0.162069 -0.107561 0.840810 0.171948 -0.929072 -0.684593 -0.146362 0.125225 0.092183 0.039453 0.429782 -0.064590 0.951283 0.124985 0.165116 -0.064690 -0.148167 0.322603 -0.224227 -0.063693 0.313555 -0.209218 -0.996247 -0.511118 -0.339488 -0.425238 -0.616350
corporation 0.026352 0.473394 -0.220355 0.499897 -0.195084 -0.890024 0.108218 0.981820 -0.925841 -0.783642 0.061976 -0.964037 -0.875294 -0.163358 -0.144940 -0.430073 0.758595 0.121002 -0.373945 0.076397 -0.345499 0.631868 0.503548 0.217425 -0.815557 0.318282 0.623307 0.913480 -0.076324 0.700963 0.668963 0.305282 0.041031 0.115819 0.926337 0.099773 0.864067 -0.809300 0.280032 -0.451631 -0.714137 0.104961 0.137876 0.304235 0.381344 -0.622102 -0.850884 0.671330 -0.326576 -0.413649 -0.789685 0.045864 0.115226 0.115316 0.860559 -0.239337 -0.236163 0.471879 -0.799323 0.867631 0.062571 0.973990 -0.614951 0.824266 0.866775 -0.881625 0.274521 0.046117 -0.491134 0.526064 0.998942 -0.031253 0.310765 -0.592870 0.149185 0.398276 -0.533226 0.142008 -0.920081 0.020148 0.786383 0.968904 -0.472905 0.091629 0.735181 -0.412067 0.285151 0.712534 -0.777403 0.159351 0.608907 0.970838 -0.352087 0.136729 0.400266 0.172712 -0.092264 -0.899254 -0.103354 0.631919 -0.655835 0.214050 0.539854 -0.704630 0.291903 0.569991 -0.205708 0.322906 0.285130 0.250293 0.331366 0.148679 0.324342 -0.814512 -0.036146 -0.430230 -0.273750 -0.859103 0.344651 0.032217 -0.154920 -0.165585 -0.660034 -0.909138 -0.995480 -0.925564 0.902573 -0.475479 -0.585859 0.962619 0.469065 0.124192 0.400145 0.668393 -0.204890 0.997709 0.844527 -0.426710 -0.360396 0.939415 -0.889499 -0.075698 0.056722 -0.529944 0.052943 0.492701 -0.125470 -0.052920 0.626620 -0.962723 -0.204377 -0.768856 0.599199 -0.439657 -0.100971 0.843146 0.898911 -0.066036 -0.797631 -0.800536 -0.044089 -0.628408 0.728495 0.713268 -0.326390 0.602525 0.933338 -0.734437 0.703673 -0.185178 0.465199 0.753291 -0.485395 -0.142557 0.340384 -0.907339 -0.089021 0.663681 -0.145021 -0.610903 0.418881 -0.091993 0.147167 0.580455 0.826306 -0.757759 -0.109188 0.777661 0.865866 -0.116874 0.276197 -0.476872 -0.117170 -0.197414 0.232941 0.597606 0.779733 -0.108849 -0.218859 0.730946 0.952994 -0.462021 -0.800827 -0.755619 -0.031261 -0.487825 -0.325075 -0.743513 -0.398509 -0.726498 0.017765 -0.075324 0.301859 -0.428575 -0.063942 -0.239406 0.471217 -0.101162 0.132410 0.498035 0.336438 -0.268371 0.502689 -0.653288 -0.123252 -0.351191 -0.541765 -0.201799 -0.298022 -0.199151 -0.702014 0.440395 -0.878473 0.252141 -0.758182 0.279145 0.399323 0.402894 0.588326 -0.448763 -0.995025 0.254724 -0.216972 -0.788244 0.271476 0.340675 -0.865908 0.323117 -0.870762 -0.228481 -0.569815 -0.080488 0.640453 -0.457020 0.728467 -0.925946 0.472116 0.152496 0.484756 0.935314 0.846348 -0.753746 0.465053 0.683892 -0.785857 0.317015 0.009709 -0.862337 -0.980288 -0.717286 0.747248 0.188704 0.592030 0.359203 -0.554214 0.539650 -0.216902 -0.934859 0.664513 0.306329 -0.624991 -0.751978 -0.756651 0.984808 -0.132474 -0.323396 0.245927 0.153470 0.217383 0.776007 0.406624 -0.135570 -0.033144 -0.720635 -0.398838 -0.995217 -0.426518 0.386967 -0.536436 -0.207952
sheep 0.425268 0.930260 0.346786 -0.739907 0.827476 -0.597661 -0.388003 -0.727408 0.589284 -0.429365 0.960889 -0.219663 0.204739 0.545249 -0.911997 -0.251088 -0.617006 0.422752 -0.007194 0.535289 0.984417 0.926963 -0.830854 0.950442 -0.562057 -0.533066 0.067721 -0.995598 -0.821528 0.024849 0.235734 -0.131679 0.698672 -0.614028 -0.067274 0.536259 -0.008832 -0.211130 -0.722571 -0.453356 -0.789388 -0.297782 -0.804351 -0.923480 0.399771 -0.460031 -0.473799 0.065610 0.485486 -0.080263 -0.239463 -0.681765 0.880451 -0.335517 -0.771035 0.644505 -0.748739 0.412787 -0.262340 0.748149 -0.806343 -0.256869 0.595313 0.363471 0.908485 0.248939 -0.313332 -0.546868 -0.169697 -0.906075 -0.395989 -0.141979 0.930445 0.550007 -0.519454 -0.341465 -0.513279 0.284635 -0.471053 -0.214067 -0.493973 0.450927 -0.836057 -0.927015 0.991171 -0.421209 0.204466 0.863275 0.990963 -0.082903 0.990208 0.147245 -0.931159 0.044468 0.723534 -0.995213 -0.586975 0.514843 0.595666 -0.632348 -0.244089 -0.773104 -0.366745 -0.050193 0.513352 0.083599 -0.099262 -0.303952 0.902904 0.277851 -0.580298 -0.585934 -0.660242 -0.450216 -0.199963 0.686359 -0.154123 0.589849 -0.390273 -0.775132 -0.016448 0.845366 -0.366892 -0.727415 -0.437951 -0.738539 -0.463075 -0.683828 0.256710 0.497226 -0.814839 -0.882853 0.698260 -0.095026 -0.330442 -0.003347 -0.211354 -0.312535 0.853628 -0.978260 0.700945 0.750314 -0.221200 0.762592 -0.866887 -0.242071 -0.270157 -0.761395 -0.876041 0.038064 -0.093160 -0.753188 0.248791 -0.033611 -0.867293 0.160749 0.388192 -0.574228 0.767290 0.497469 -0.690710 0.547068 -0.187243 -0.963007 0.604649 -0.615456 -0.289728 -0.186408 -0.396606 -0.662711 0.864933 0.798714 0.416698 -0.458641 -0.687701 0.053887 0.772599 0.335853 0.656775 -0.862019 -0.905649 -0.598652 0.319973 -0.639121 -0.693532 0.433818 -0.349298 -0.684190 0.237048 0.029639 0.004180 -0.452313 -0.298562 0.159728 -0.080156 0.585641 -0.134270 0.764180 -0.351548 0.165158 -0.755914 -0.862283 -0.636695 -0.729115 0.626853 -0.068957 0.414674 -0.924869 0.002985 0.337228 0.092667 -0.111860 -0.855797 -0.994507 -0.842950 0.756540 0.364706 -0.060607 0.290197 -0.656128 0.410228 -0.705961 0.224464 -0.756868 0.606062 -0.791432 -0.519010 -0.521493 -0.053240 -0.481286 -0.589610 0.319531 -0.950778 0.871630 0.069355 -0.903872 0.017678 0.722620 -0.948811 0.002724 0.833569 -0.602070 0.393973 -0.935140 -0.802301 0.823827 -0.634073 -0.656457 0.024086 0.896031 -0.170954 -0.041740 0.811852 0.340937 0.233418 0.486466 0.694702 0.758218 -0.296480 -0.000371 -0.978452 0.432159 -0.549426 -0.283402 0.002952 -0.366759 0.634183 0.946783 0.217726 -0.011389 -0.292441 0.446795 0.969250 0.605645 0.083269 -0.278344 -0.225734 -0.085494 0.139290 0.315064 -0.510156 0.420187 0.170684 0.791528 -0.666573 -0.388637 0.909761 0.615417 0.463203 -0.717731 0.384002 0.416353 0.226598 0.363083 -0.057122 -0.853945 0.871584 -0.082348 0.295568 -0.972855
acquire 0.253257 -0.250044 -0.431223 -0.848705 -0.041382 -0.491577 0.850343 -0.242252 0.919819 -0.348648 0.761025 -0.354603 0.472042 -0.501400 0.597761 0.392246 -0.874318 -0.919903 -0.427280 0.206643 0.741587 0.202748 0.272947 0.952261 0.209098 -0.117380 -0.218412 -0.172503 0.087072 -0.057870 -0.356528 0.597698 0.413319 0.775687 -0.385831 0.943597 0.121867 -0.520783 0.740853 0.786720 -0.225057 -0.666216 0.456172 0.041539 -0.325482 -0.090079 0.624098 0.118632 0.902182 -0.476368 -0.476825 -0.002040 -0.726638 -0.599051 0.166915 0.655963 -0.842774 0.181830 0.821267 0.584729 0.678397 0.450995 0.931946 -0.046941 0.309217 -0.602878 -0.108568 0.746107 -0.146056 0.521493 0.554661 0.938114 -0.481418 -0.879605 -0.118594 -0.139037 -0.364362 0.534646 -0.893186 0.617319 0.213986 -0.536647 0.988198 0.148394 0.784446 0.608285 -0.303937 -0.265882 0.861127 0.100413 -0.247302 -0.546510 -0.954432 -0.779307 0.412226 0.582403 -0.108073 0.359326 -0.466414 -0.698009 0.962506 0.511413 0.273517 -0.128741 -0.818389 0.114587 -0.133186 -0.242943 -0.984625 0.872442 0.148580 0.021095 0.022704 0.470397 0.499879 0.583746 0.258909 -0.633736 -0.149223 -0.361012 -0.283933 -0.822817 0.523559 0.880798 -0.942622 -0.863165 0.853815 -0.706308 -0.678775 -0.678716 -0.901934 0.283507 -0.665754 0.837467 -0.524459 -0.275086 -0.800303 0.279829 -0.811827 -0.378555 -0.306558 -0.662426 0.066726 0.293992 0.257483 -0.273190 -0.343140 0.275681 0.053745 0.143150 0.393703 0.412965 0.667959 -0.536635 0.223233 0.378079 0.719572 -0.680520 -0.313462 -0.098033 0.774841 0.528097 0.271894 0.714691 0.605574 -0.039361 0.421354 -0.498009 -0.069696 0.029038 0.661385 -0.631540 -0.278770 0.058135 -0.327043 -0.718062 0.125914 0.021098 -0.992049 -0.626545 -0.843628 -0.973897 0.537075 0.161485 -0.253528 -0.037059 0.026764 0.656548 -0.978984 0.688277 -0.661017 -0.223476 0.026214 -0.061253 0.713350 0.182986 0.981052 -0.105820 -0.665149 0.834305 -0.853958 -0.331845 0.116439 0.151661 0.921403 0.969094 0.341732 -0.018443 0.094391 -0.726232 0.453683 0.449896 0.081749 0.462709 0.920853 0.750484 -0.356577 -0.728178 -0.926052 0.047887 0.292871 0.339084 0.489501 -0.623410 -0.281014 -0.003450 -0.018493 0.606776 0.757998 -0.663647 0.059009 -0.155640 0.585733 -0.307047 -0.848403 0.238985 0.826593 -0.215088 0.043266 0.074927 0.493238 -0.873240 0.080856 -0.547208 -0.307600 -0.536020 -0.839244 -0.265070 -0.527432 0.500532 -0.376303 -0.770392 -0.105197 -0.474614 -0.025670 0.780913 0.443574 -0.287103 0.728279 0.759436 -0.656021 -0.155561 -0.037970 0.464806 0.372413 -0.144512 0.656144 0.916124 0.511562 0.163084 -0.383868 0.577457 -0.912528 -0.183073 0.800046 0.469052 -0.025746 -0.176326 0.377950 0.338849 0.114267 -0.138030 0.401384 -0.398486 -0.188223 0.743397 0.574913 0.443824 -0.945519 -0.388827 0.146801 0.053707 0.196166 0.905151 -0.527249 0.179490 -0.940753 -0.746803 -0.291086 0.581251
rabbi -0.649272 -0.804357 -0.018413 -0.388059 0.856179 -0.292862 0.792283 0.007985 0.524055 0.296148 -0.380697 -0.896855 0.738625 -0.255469 -0.649950 -0.262453 -0.339257 0.456083 -0.689871 0.389510 -0.787041 -0.630649 0.732088 -0.678490 0.534883 0.804251 -0.120306 0.772112 -0.537516 0.456833 0.632296 -0.184320 0.731724 0.651173 0.748383 -0.686327 0.902857 -0.282548 0.182356 -0.193514 0.544496 0.818522 -0.609152 -0.707381 -0.855971 0.749359 -0.474967 0.888812 -0.541514 -0.638012 0.869275 -0.109696 0.697957 -0.284789 0.704868 0.659303 -0.294756 0.583845 -0.583776 -0.147738 0.890280 -0.278010 -0.436121 0.748409 -0.034886 -0.247875 -0.692533 -0.818121 -0.882899 0.156984 0.685986 -0.597640 0.030641 0.300966 -0.712156 0.665910 0.603899 0.423850 0.356446 -0.555855 0.037437 0.481120 0.386998 0.175829 -0.912779 -0.192034 0.618739 0.349815 -0.693472 -0.999515 -0.736570 -0.440388 0.863278 -0.117827 0.927725 0.111099 -0.913609 -0.378880 0.055656 -0.148401 0.408298 -0.054182 0.216331 0.005670 0.207547 0.958641 0.206233 -0.404822 -0.584313 -0.551368 -0.700668 0.180668 -0.420053 0.609594 -0.188354 -0.484703 0.646680 -0.229936 0.149884 0.327960 0.191476 0.127592 0.871509 -0.336071 -0.274084 -0.958704 0.250429 -0.692835 -0.643059 0.107350 0.227246 -0.426126 0.037406 0.096862 -0.417391 -0.510278 0.001303 0.988446 0.385058 0.228599 0.567194 0.817679 0.601550 0.225106 -0.827304 -0.625265 -0.835219 0.474756 -0.361038 -0.667864 0.078663 0.252431 -0.374651 0.823356 0.496130 0.785528 0.936017 -0.816170 0.321499 -0.720720 0.766668 0.332369 0.797220 0.744316 -0.590689 -0.311448 -0.983406 -0.126521 0.406470 0.808829 0.291283 0.135735 0.738548 -0.247559 0.174236 -0.889103 -0.013821 0.805064 0.476653 0.049503 0.745836 -0.802591 0.297337 -0.778800 0.297381 -0.183536 -0.704434 -0.060233 0.652987 0.367474 -0.037733 0.409170 0.884151 0.642717 0.631388 -0.981035 -0.701530 -0.499507 -0.657995 -0.474877 0.247429 0.037373 0.161114 0.500155 0.521655 0.785892 -0.067412 0.607324 -0.302732 -0.447976 0.768097 0.470249 -0.103658 -0.969252 0.068588 -0.017256 0.146779 -0.817835 -0.527225 0.983747 -0.588655 -0.256376 0.889579 -0.164821 0.948734 -0.308113 0.724469 -0.905805 0.289433 0.467575 -0.610100 0.390095 0.014822 -0.705909 0.437533 -0.610450 -0.289205 -0.569479 -0.447341 0.724309 0.897602 -0.005061 -0.947194 -0.729433 0.152615 -0.678501 -0.535036 -0.715258 -0.948563 0.221962 -0.981397 -0.645798 -0.504675 0.553097 -0.031602 0.068929 -0.187021 -0.927129 -0.724121 0.335149 0.677674 -0.588245 0.896454 0.758891 0.360795 -0.113117 -0.185321 0.763406 0.247979 0.529214 0.690382 0.859136 0.505959 0.805739 -0.005502 -0.737128 0.973742 -0.263362 -0.750119 -0.560925 0.903500 0.658256 -0.731840 -0.958375 -0.640398 -0.035077 -0.038250 0.436502 -0.652125 0.301679 -0.204965 -0.919776 -0.096857 -0.977660 -0.898432 0.953425 -0.333082 -0.494136 0.569119 0.607744
situation -0.547523 0.464018 0.748897 -0.230381 -0.052377 -0.424519 0.903956 -0.421650 0.526543 -0.481735 0.762176 0.518064 0.756702 0.598998 0.228261 -0.192510 -0.694541 -0.557034 -0.039208 0.246243 0.561328 -0.379240 0.098561 -0.032550 -0.561435 -0.715173 0.519055 -0.342933 0.504046 0.393325 -0.322232 -0.806339 -0.060032 0.784378 0.223038 0.243140 -0.574217 -0.364423 -0.375883 0.627136 0.404018 -0.311823 0.225774 0.901541 0.026074 0.964105 -0.669545 0.704571 -0.245981 0.409409 0.378203 -0.929555 0.907073 -0.391901 0.131443 -0.302429 -0.176646 -0.661520 0.470708 -0.443989 0.323121 -0.082827 0.667008 0.990722 0.986866 -0.845130 -0.526885 0.856940 0.639828 0.087814 0.543358 0.393957 0.151724 -0.493627 0.352352 0.224796 0.071283 0.005133 0.848362 0.903637 -0.431388 0.339513 -0.513150 -0.954088 0.430270 -0.186035 -0.289235 0.960439 0.685017 -0.869623 -0.914717 -0.171440 -0.194428 -0.851936 -0.881878 0.483079 0.298085 0.300743 0.820994 -0.401206 -0.332766 -0.402685 -0.705648 0.193044 0.455468 -0.322065 0.087356 -0.328605 0.423738 -0.805003 0.747033 0.707535 -0.763246 -0.435606 -0.490215 0.343834 0.758349 0.035495 -0.327392 -0.871428 0.397256 0.968259 0.963139 0.055870 0.228901 0.758004 -0.130105 -0.673682 0.826135 0.939272 -0.599833 0.749022 -0.878357 0.600924 0.801906 0.587915 0.405005 -0.672327 0.663387 -0.496713 0.433445 -0.144771 -0.259407 0.388923 0.672780 -0.666885 0.914225 -0.763697 -0.645236 -0.482356 0.826934 0.814877 0.358058 0.002081 0.305828 0.626917 0.686227 0.530234 0.380953 -0.620815 0.124043 0.151957 0.462358 -0.006096 -0.294145 -0.695716 0.651901 0.818809 0.679026 -0.381953 -0.223791 0.262984 -0.490533 -0.032249 -0.571091 -0.215209 -0.859029 0.004969 0.896154 0.654033 -0.444686 -0.063264 0.540009 -0.957585 0.915170 -0.442991 0.488658 0.633417 -0.458689 0.950818 -0.430850 -0.074078 -0.115833 0.756653 -0.634961 0.001160 -0.733550 0.125142 0.978725 -0.495109 -0.133023 -0.459288 -0.250677 -0.957358 -0.359627 -0.904306 0.790149 0.709884 -0.435311 -0.974726 0.482503 -0.051435 0.669875 -0.389593 -0.397769 0.693411 0.929025 -0.575130 -0.140568 0.676835 0.682799 0.968598 -0.315245 0.606616 -0.894784 0.284184 0.334403 0.008218 -0.144657 -0.312588 -0.302292 -0.680603 0.650539 -0.063074 -0.457582 -0.186535 0.605461 -0.579210 -0.365276 0.765266 0.967549 -0.970608 -0.199507 -0.683946 0.712904 -0.588261 0.969351 0.545773 -0.181346 0.938901 0.660560 -0.784427 -0.900609 -0.777941 -0.440206 0.720514 -0.283975 0.645943 0.648950 0.910899 0.414780 -0.840084 0.149565 -0.724104 0.871408 0.269360 -0.406816 -0.120519 -0.571594 -0.344904 -0.304717 0.980971 0.270440 -0.275983 0.431588 0.209251 -0.250234 -0.161972 0.331828 0.746853 0.555665 -0.039811 0.564372 0.956603 0.630737 -0.142732 -0.939769 0.089847 0.500928 0.215543 0.665080 -0.709811 -0.965303 0.565908 0.547026 -0.577809 -0.426613 -0.165778 -0.659869 0.178245
say -0.065009 -0.998365 0.460572 -0.511150 -0.971104 0.160917 0.296330 -0.283370 0.055903 -0.777817 -0.341281 0.640457 -0.742029 -0.460471 -0.304523 0.572819 -0.542006 0.661384 -0.263567 0.336971 0.069890 0.712796 -0.783616 -0.459446 0.023988 0.602979 -0.330345 0.873164 0.701966 0.912851 0.806674 -0.624023 0.565704 -0.446448 0.476000 -0.317864 -0.843467 -0.454525 -0.491703 -0.185517 -0.368646 0.488299 -0.442049 0.947671 -0.716881 0.390256 0.410329 0.598742 -0.282312 -0.242097 -0.285799 -0.710880 -0.364632 -0.024653 0.425255 -0.399652 -0.513687 -0.818423 0.746182 0.145079 0.889183 -0.052011 0.853362 0.201383 0.175301 -0.803279 0.699468 -0.786130 0.627970 -0.327293 -0.998154 0.532274 -0.410454 0.654260 0.033762 0.357489 -0.829013 0.249517 0.984425 0.952708 0.792156 0.301717 -0.511021 -0.240928 -0.884610 0.945278 -0.304075 -0.172198 0.874983 0.298119 0.963721 -0.901454 0.075666 0.782144 -0.880311 0.553086 -0.614680 0.153469 0.824953 -0.669575 0.744418 -0.641421 -0.180108 -0.745858 0.440659 0.583912 0.708075 0.972135 0.423419 -0.135619 0.769130 0.816744 0.885972 0.233979 0.465967 0.468762 -0.094846 -0.621574 -0.172885 -0.867089 -0.292533 0.498599 -0.160791 -0.410345 0.486756 -0.086331 -0.549868 0.200840 -0.185779 -0.207309 0.429567 0.334842 -0.584297 0.119183 -0.766845 -0.436514 -0.272457 -0.212545 -0.847989 -0.494170 0.715794 0.336596 -0.682892 0.666443 -0.606093 0.635910 -0.915289 0.910159 -0.013872 -0.948385 0.544113 -0.782726 -0.299152 -0.885319 -0.264885 -0.930057 0.154901 0.741242 -0.588418 0.901633 0.365685 0.404280 -0.790500 0.503200 -0.073005 0.632674 0.160077 -0.160601 -0.884626 0.892456 -0.786094 0.868168 -0.010938 -0.322901 0.281528 0.739520 0.432002 -0.714947 0.722748 0.394271 -0.321655 0.745317 -0.965198 0.239795 -0.319652 -0.435000 -0.525098 -0.700847 0.008523 -0.907625 -0.212736 -0.927143 0.283479 -0.653714 -0.659939 -0.667742 0.279401 0.902624 0.521915 -0.088647 0.262976 0.667181 -0.970707 -0.807925 -0.684395 -0.631694 -0.782287 -0.644071 0.427076 -0.788613 0.807501 0.656198 0.147111 -0.989966 -0.800946 -0.289255 -0.909485 -0.966455 -0.448878 0.705798 0.276023 -0.898433 -0.618985 0.746460 -0.398416 -0.461040 0.405820 -0.719323 -0.585540 -0.831413 -0.083518 0.166744 0.328471 0.920744 -0.902160 -0.176285 -0.216499 -0.319542 -0.936543 -0.001035 0.470319 -0.438980 0.312311 -0.371311 0.140860 0.891997 -0.855990 0.655829 0.034585 0.652505 -0.198531 0.678017 -0.317362 -0.053077 0.260770 0.505077 -0.836774 0.688797 0.182029 0.687393 -0.818898 0.446403 -0.995479 0.720163 0.435825 0.132309 0.597563 -0.489303 -0.641608 0.166821 0.913407 -0.140494 0.896278 0.282517 0.785403 -0.493198 0.720245 0.679080 -0.435703 -0.480101 0.237990 0.586317 -0.577516 0.111189 0.065288 0.794430 -0.345563 -0.336729 0.444519 0.394353 -0.376026 0.932578 0.191629 0.823293 -0.377219 -0.747705 0.195036 0.227307 -0.510602 -0.874097
neck 0.216998 -0.051309 -0.982301 -0.339179 0.675172 0.140783 0.982198 0.911727 -0.742678 0.412967 -0.945668 -0.412321 -0.787798 0.807513 -0.327704 0.187637 0.836701 0.251104 -0.229908 -0.247131 -0.295747 0.212865 0.640731 -0.390920 -0.480548 -0.143904 -0.916421 0.048863 0.064743 -0.714057 -0.514984 -0.964026 -0.922930 -0.659486 -0.705188 0.518826 -0.865588 -0.356839 -0.980118 0.807374 -0.054353 -0.715495 -0.196407 0.556291 -0.109480 0.373939 -0.702447 0.381008 -0.409014 0.765171 0.032511 -0.483534 -0.958745 -0.101251 0.781462 0.208366 -0.633940 -0.690538 0.381175 -0.161328 -0.097856 0.146969 0.410964 0.209570 0.840772 0.838369 -0.475542 -0.036603 -0.096106 -0.014374 0.451145 -0.381555 0.454345 -0.744233 -0.632182 -0.826307 0.888403 -0.018785 0.935369 0.763593 -0.932808 -0.769399 -0.059618 0.507973 -0.575819 0.897680 -0.365648 0.210844 -0.173762 0.428561 -0.075626 0.907700 0.955269 0.636491 0.589890 0.325197 0.696723 -0.001259 0.429598 -0.218422 0.200732 -0.691516 0.125475 0.351549 -0.742698 -0.447130 0.143272 -0.949858 -0.346483 0.098869 -0.674505 -0.418472 0.525682 0.786982 -0.305520 0.421233 -0.416364 -0.314408 0.171682 -0.582488 0.229546 -0.745966 -0.033188 -0.210611 0.962436 -0.062022 0.700965 0.120350 0.638704 -0.690778 -0.022743 -0.815429 -0.150245 -0.784226 -0.842982 -0.479165 0.120453 -0.204248 0.909611 -0.901748 -0.638028 -0.850463 0.715500 0.313623 0.782950 0.027932 0.832817 -0.337269 0.563198 -0.989291 0.168214 0.736256 0.607934 -0.628978 -0.133802 -0.365845 0.061242 -0.688751 0.321597 0.558749 -0.442329 0.493241 -0.868314 -0.069678 -0.285635 -0.517954 0.285918 0.680940 0.836021 0.286357 -0.642276 -0.377719 0.627220 0.527205 0.149819 0.948658 0.173318 0.856343 -0.650703 0.158245 -0.343598 0.367307 -0.886610 0.568214 -0.031227 0.010508 -0.524505 0.051213 0.801937 0.525290 0.336524 0.170223 -0.713497 -0.879442 -0.559072 0.166250 -0.587864 -0.992409 -0.806967 -0.006582 -0.316282 -0.544748 0.620376 -0.892769 0.977019 0.397490 0.483912 0.916549 0.789984 -0.638760 0.115963 0.154587 0.057141 0.567011 0.775088 0.685700 -0.236327 0.766558 -0.750715 -0.054772 0.835953 -0.956399 0.367716 -0.271285 -0.185041 -0.734592 0.921455 -0.832479 0.800756 0.427579 0.766576 0.793090 -0.468421 0.839317 0.599367 -0.178971 -0.899916 -0.269321 -0.114116 0.547191 -0.419979 -0.190758 -0.799395 0.753971 0.356564 -0.532194 -0.143178 -0.632445 -0.800359 0.326374 0.624649 -0.166442 -0.980132 -0.210813 0.360809 0.321614 0.005347 0.629049 0.971560 -0.419066 -0.515481 -0.239540 -0.215055 -0.259977 0.105489 -0.355599 0.735254 -0.531230 -0.421688 -0.874875 -0.374144 -0.539438 -0.200450 0.138446 0.779683 0.707282 -0.143084 0.914180 -0.292795 0.557038 0.891664 -0.291225 -0.814185 0.011309 0.002795 -0.585782 -0.410083 0.181705 0.377524 -0.337201 0.313769 -0.031003 -0.229003 0.771538 -0.991483 -0.966730 0.044700 0.550637 -0.718100 -0.397373
driver 0.270580 -0.899966 -0.328263 0.468231 0.581505 0.909744 0.019761 -0.268972 -0.503077 -0.324095 0.160531 -0.110182 0.383846 0.605584 0.477908 0.733480 0.627884 0.081419 0.770183 0.894363 0.427792 -0.656665 -0.320592 0.345240 0.176871 0.000003 0.639266 -0.185956 -0.208343 -0.233460 -0.230994 -0.374630 0.368975 0.102944 -0.973414 0.678234 0.248447 0.496228 -0.031125 -0.328422 -0.251811 -0.758301 -0.230770 0.612830 0.909430 0.888639 0.057369 -0.803249 -0.159403 0.005465 -0.189726 -0.482265 0.334816 -0.170554 -0.314949 -0.338438 -0.859545 -0.033017 -0.699774 -0.219841 0.521745 0.709251 -0.583035 0.258530 -0.853416 -0.130182 0.601858 -0.043532 -0.118493 -0.389625 -0.490287 -0.441639 -0.342315 0.934778 -0.496055 0.222327 -0.934792 0.765157 0.791311 0.387617 0.855207 -0.005014 0.702018 0.489241 0.509007 -0.736227 -0.239196 -0.170079 0.547420 -0.120220 -0.691617 -0.679008 0.815235 -0.214292 0.044120 -0.034112 0.714459 -0.782939 0.965441 0.972543 -0.929631 -0.396193 -0.589483 -0.439858 0.096789 0.714127 0.140185 0.815120 0.653437 -0.395407 0.836159 -0.531306 -0.172018 -0.759483 -0.406323 -0.332622 -0.176237 -0.456566 -0.068081 0.494612 0.126737 -0.299428 0.960384 -0.307952 0.361044 -0.112606 0.773846 -0.566675 -0.384566 0.295781 -0.059280 0.617853 -0.806279 0.750518 0.985198 0.792156 0.057742 0.007511 0.159093 0.779676 -0.234470 -0.744087 -0.169070 -0.640081 -0.579674 -0.688453 0.281712 -0.973217 -0.118996 -0.902936 0.552413 -0.842863 0.455978 0.477148 -0.540054 -0.263017 -0.828322 0.347723 -0.006017 0.051856 0.664484 0.798305 0.875207 -0.411116 -0.571067 0.343970 0.305163 -0.122375 -0.988410 -0.608657 0.600941 -0.565398 0.492231 0.454531 0.564578 0.234486 -0.602552 -0.552854 0.896502 -0.584931 0.013122 -0.915229 -0.620752 -0.035083 -0.776321 -0.112288 0.685610 0.638822 0.854565 -0.193463 -0.427436 -0.100649 0.844605 0.691158 -0.555103 0.413424 0.082692 0.215634 -0.487945 -0.217346 0.718489 0.901524 -0.874755 0.201272 0.516738 0.514254 -0.159347 -0.988235 0.910339 0.156931 -0.117805 0.962152 -0.075960 0.604104 -0.206850 0.230133 -0.181815 0.789201 0.164394 0.269704 0.988399 0.954253 -0.234828 -0.021843 0.382731 -0.226831 -0.010300 0.307480 0.532295 -0.514384 0.764051 -0.008151 0.602900 -0.008717 -0.613804 0.616857 -0.292056 -0.359061 -0.734233 0.643683 0.854868 0.511593 0.426714 0.338639 0.899238 0.877024 0.130464 -0.817362 0.255055 -0.543283 0.477634 -0.605812 -0.584954 -0.190130 -0.994128 -0.561584 -0.793141 -0.666364 0.467163 -0.178375 0.770502 0.591327 0.556911 0.276561 -0.674668 -0.286220 -0.589289 0.470863 0.406302 -0.093800 -0.844505 -0.433922 0.997497 -0.318977 -0.703379 -0.891935 -0.047332 0.084687 0.776806 -0.445228 0.837205 -0.218445 0.449987 0.216898 -0.681994 0.099348 -0.386528 0.444383 0.521438 0.375879 -0.428321 -0.253559 0.014756 -0.726549 0.269737 -0.815164 0.721612 -0.422307 -0.453204 0.032604
vessel -0.224389 -0.955857 -0.908680 -0.870752 0.853660 -0.134501 -0.440688 0.690933 0.042898 -0.730088 -0.419416 -0.254773 0.196631 0.098400 -0.780819 -0.043823 -0.623607 0.283071 0.135670 0.515799 0.894460 0.123180 -0.892432 0.173059 0.408490 0.790443 0.675924 -0.121235 0.718002 -0.984721 -0.450776 0.172360 -0.130869 -0.560502 0.031479 0.673302 -0.042406 0.159123 0.431749 0.079366 0.495772 0.598830 -0.728569 0.566126 -0.769640 0.119794 0.002567 -0.814855 -0.128159 -0.112644 0.197805 -0.774432 -0.311717 -0.568755 0.150100 -0.259519 -0.696947 -0.817261 0.225148 -0.272270 -0.217923 0.578090 0.845920 0.803655 0.982203 -0.480176 -0.102466 -0.247999 0.617322 -0.251817 0.687572 0.079652 -0.545682 0.162375 -0.483284 0.209800 -0.229146 0.690010 0.303673 0.633490 -0.296796 0.318586 -0.796446 0.641021 -0.550713 0.840857 0.057029 -0.460969 0.109517 0.865845 0.299013 -0.800342 -0.299019 0.067622 0.384756 -0.857996 0.418320 0.302163 -0.883837 -0.647902 -0.137050 -0.953907 0.274809 0.638353 -0.721655 0.742496 0.002184 -0.752864 0.365468 -0.863985 -0.176299 -0.303747 -0.935286 -0.752676 0.337022 0.334913 -0.285012 -0.751671 -0.240921 -0.009896 -0.148987 0.675485 -0.332389 -0.556114 0.478751 -0.880923 0.707392 -0.829175 -0.566359 0.984019 0.368420 0.614002 0.774159 -0.875931 0.431642 -0.026568 0.216620 -0.608170 0.110122 0.382093 0.229053 0.442099 -0.060461 0.728249 -0.943623 0.195799 0.515268 -0.568864 0.798875 -0.161706 0.046220 0.237704 -0.221237 -0.075857 -0.056241 0.170756 -0.481761 0.772933 0.119688 -0.281168 -0.573182 -0.941586 -0.573153 0.501536 -0.329788 -0.001049 -0.470874 0.434752 0.819690 0.954670 0.600307 0.005848 -0.851317 -0.735621 0.653732 0.105158 -0.809117 -0.668333 -0.352589 0.301115 -0.763360 -0.024217 0.402813 0.115992 -0.764168 -0.630625 0.633159 -0.727663 -0.787839 -0.904988 0.471447 -0.833503 -0.313923 0.766723 -0.783715 0.742799 -0.321737 -0.875248 -0.667954 0.592200 -0.392565 -0.799155 -0.477400 0.860056 0.400267 -0.725547 0.280738 -0.438033 0.449730 0.398297 0.509715 -0.054533 0.472399 0.691900 0.438712 -0.475400 -0.608568 0.901539 -0.239606 -0.817627 -0.618993 0.492978 -0.313950 0.150559 0.609712 -0.624482 0.903755 -0.937614 -0.755460 -0.622468 0.680445 -0.874021 -0.357341 -0.912067 -0.114792 -0.782127 0.281333 -0.223854 -0.168662 -0.091696 -0.414684 0.169439 -0.143563 0.358474 0.326395 -0.072065 0.372852 0.177843 -0.806843 -0.338614 0.335673 -0.982550 0.173586 0.722678 0.077051 -0.975830 0.512008 -0.315173 0.659980 -0.553051 -0.983701 -0.770209 0.601366 -0.246721 0.823806 -0.020524 0.997710 -0.602625 0.691100 0.451696 0.459017 0.947972 0.191506 -0.323287 -0.785460 0.955737 0.922968 -0.202267 -0.734762 -0.265765 -0.545672 0.714507 -0.479810 0.532073 0.829128 -0.508336 0.642209 -0.907983 -0.072988 -0.530248 0.870629 0.669046 -0.150755 -0.457973 0.460994 -0.318224 0.441566 0.771817 -0.395000 0.603298
wood 0.135287 0.663515 -0.431700 -0.592239 -0.286502 -0.226745 -0.694438 0.229685 0.294164 0.801460 0.584897 -0.451064 0.277857 -0.584978 -0.228159 0.994873 0.017262 -0.116783 0.979937 -0.806866 0.110703 -0.213584 -0.949056 -0.725603 0.241978 0.869934 -0.108423 -0.385007 0.014240 0.983056 -0.462352 -0.057136 -0.191836 0.014795 -0.845306 0.294167 0.792053 -0.300026 -0.105149 0.126791 0.253839 0.833505 0.442677 0.204885 0.798129 -0.971250 -0.167767 0.041932 -0.418785 -0.462330 0.670423 0.653654 0.580320 -0.540367 0.425391 -0.228594 0.561638 0.161814 -0.460861 -0.679680 0.082881 0.986414 0.819300 0.817315 0.325965 0.877622 -0.291195 0.306481 -0.740458 0.499148 -0.900842 0.081701 -0.718801 -0.981080 0.274697 -0.748057 0.536433 0.861007 0.143162 0.888847 -0.046826 -0.219302 0.636979 -0.089927 -0.611162 0.507420 0.004269 0.273494 0.097447 0.611114 0.270552 0.958237 0.784227 0.471171 -0.663312 -0.922458 -0.891137 0.154367 -0.789896 0.335657 -0.397465 0.606883 0.034755 -0.440245 -0.168855 -0.538994 0.985403 0.876643 -0.210739 -0.171850 0.374197 -0.297484 0.972564 -0.456467 -0.670929 0.765628 0.777439 0.571060 -0.046515 0.327210 0.049999 0.846617 0.839106 -0.272324 -0.669251 0.596542 0.499300 -0.816793 -0.186853 -0.392022 -0.421651 -0.518472 0.920936 -0.046520 -0.800771 -0.137439 0.872205 0.275306 -0.703570 0.411035 -0.086912 -0.281699 0.222799 0.625897 0.136747 -0.684771 0.306325 0.279848 -0.325431 -0.041315 -0.412080 0.107780 -0.650635 0.134647 0.785974 0.121441 -0.771733 -0.476178 0.992352 -0.368807 0.368480 0.203109 0.416143 0.282068 -0.308924 0.982987 -0.221980 -0.425289 0.880860 -0.381821 0.245576 0.077651 0.217754 -0.606271 0.936535 0.065458 0.071625 0.569479 -0.286743 -0.992667 0.057752 -0.543828 -0.381815 -0.051776 0.946654 -0.785287 -0.495096 -0.488021 -0.363860 -0.441481 0.774104 0.473559 -0.260504 0.756899 -0.956583 -0.982647 0.440634 -0.729883 0.268006 -0.443305 0.603047 0.937807 0.946447 0.121983 0.851739 0.846563 0.050767 0.788899 -0.398431 0.834043 0.062478 -0.620715 0.828768 0.083336 -0.010177 0.227896 -0.062287 0.101673 -0.816853 -0.965608 -0.325978 0.820675 0.691746 -0.958188 0.499190 0.951715 -0.759916 -0.894359 -0.484035 -0.136408 0.867542 0.423467 -0.649413 0.117134 0.099294 0.804666 0.304548 0.049564 -0.856163 -0.596192 -0.610043 -0.587720 -0.910839 0.547855 0.149237 -0.225525 -0.624115 -0.310549 0.411650 0.587302 -0.350519 0.178848 -0.354857 -0.891641 -0.824496 0.135740 -0.613483 0.504178 0.721045 -0.734731 0.853191 0.236666 -0.349482 -0.058378 0.730296 -0.066647 0.941064 0.168093 -0.016502 0.345879 0.874016 -0.983601 -0.708431 0.782446 0.876449 -0.328754 0.709747 0.153301 -0.529126 -0.145408 0.945465 0.059864 0.375171 0.989341 0.135625 0.690087 0.532623 -0.579568 -0.574702 -0.829302 -0.415880 -0.067645 0.986259 0.541382 0.007533 -0.716551 -0.497497 -0.772055 -0.711904 -0.296080
death 0.313342 -0.264475 -0.911987 -0.600918 0.807481 -0.982003 -0.091710 0.956580 -0.612009 -0.313402 0.238786 0.127955 -0.574916 -0.884791 -0.552224 0.216762 -0.285687 -0.043804 -0.692642 -0.267043 -0.717282 0.915045 -0.377536 0.278438 0.415094 0.250527 -0.611079 0.620438 0.456810 -0.864700 -0.159330 -0.159942 0.825825 -0.337977 0.006820 0.111888 0.687759 -0.098111 0.543183 0.759531 0.079748 0.738975 0.142606 -0.173653 -0.221654 -0.817582 -0.738463 0.109727 -0.650291 0.950286 -0.263093 -0.472314 -0.752098 -0.900931 0.987644 0.758328 -0.009631 -0.744568 -0.580245 0.136631 -0.093764 -0.204606 -0.723912 -0.938382 -0.770118 -0.223536 -0.873336 -0.074047 0.177132 -0.001852 0.085238 0.062941 -0.285841 -0.245302 0.850604 0.921526 -0.396228 -0.277069 -0.910710 0.071367 0.915550 -0.810209 0.615374 -0.494626 0.652660 0.832946 -0.957110 0.794388 0.422343 -0.861740 -0.989158 -0.120678 0.543216 -0.972835 -0.427196 -0.145455 0.846752 -0.902875 0.457711 -0.316638 -0.391046 0.299519 0.979858 -0.564547 -0.501111 0.566520 0.200608 0.147076 -0.201688 0.451268 -0.484023 0.542872 0.664628 -0.242304 0.480238 0.957818 -0.744554 -0.933881 0.854036 0.582772 0.402239 -0.534502 -0.864215 -0.480985 0.150020 -0.143355 -0.294077 -0.303697 0.187562 0.082178 -0.377005 -0.966444 -0.903604 0.979190 -0.730746 0.818372 -0.595794 0.125157 -0.841072 0.148717 0.783801 -0.737594 0.799220 0.741854 -0.565432 0.208237 -0.895488 0.751650 0.633612 0.277119 -0.168488 0.719295 0.190744 -0.689940 -0.050358 -0.821415 -0.811282 0.172183 -0.337422 0.353667 0.559104 -0.153745 0.702022 0.140567 0.460859 -0.003837 -0.277604 0.670363 -0.749558 0.381723 -0.421664 0.891701 0.763590 -0.272341 -0.438980 -0.404413 0.636045 0.591869 -0.428740 -0.692560 0.863543 -0.087011 -0.016314 0.114941 0.101201 0.935900 0.210998 -0.811841 -0.808090 -0.026546 0.575914 -0.305304 -0.348566 -0.763709 -0.150610 0.169900 0.691307 0.368096 0.743250 -0.196614 -0.866515 0.707769 0.077366 0.918145 0.435650 0.845547 -0.736704 -0.054542 -0.536914 -0.584549 0.750084 -0.539777 0.923007 0.540000 0.694561 -0.661037 0.521507 -0.960290 0.271371 -0.844486 -0.214787 0.273685 0.909185 0.931257 0.808225 -0.537288 -0.201317 -0.837087 -0.408624 -0.666228 0.177445 -0.043274 0.802631 -0.860143 0.605544 0.299520 0.171008 -0.382468 0.639070 -0.006733 -0.373075 -0.825399 0.299874 0.586520 0.947804 0.862773 0.221378 -0.744267 0.016450 0.532396 -0.522875 -0.968660 -0.715657 -0.513097 -0.913079 0.953922 -0.316703 -0.802346 -0.956159 -0.237705 -0.237820 0.745030 -0.714320 0.145267 0.713139 -0.105542 -0.473436 0.450558 0.950540 0.396973 -0.652867 -0.065984 0.411660 0.547246 -0.075392 -0.014294 0.062540 0.612249 -0.450147 -0.791354 -0.666922 0.827243 -0.973292 0.812800 0.153945 0.760468 -0.500012 0.110138 -0.156907 -0.639713 0.713926 -0.552529 -0.574532 -0.160428 0.438903 0.172048 -0.575633 0.309152 0.061923 -0.418428
breakfast 0.941926 0.763964 0.033937 0.202747 -0.181592 -0.103915 0.694610 -0.963560 -0.999994 -0.080496 -0.522154 -0.260729 -0.059168 0.109251 0.928220 -0.681419 0.592238 -0.728846 0.104119 -0.249431 -0.731137 0.188047 0.130574 -0.114743 -0.158102 -0.751442 -0.002441 -0.767043 -0.423103 -0.914270 0.997544 0.030226 -0.495627 -0.912869 -0.366421 -0.566475 0.042149 -0.763382 0.190259 -0.561279 -0.598626 -0.893159 0.746672 0.467945 -0.693374 0.482142 0.410912 0.212372 -0.214007 -0.535998 0.635129 0.275054 0.704767 -0.145582 -0.460920 0.318121 0.863599 0.233243 -0.999464 -0.503867 -0.245939 -0.475489 0.106609 0.557046 -0.727620 0.444866 -0.831768 0.989061 -0.313713 -0.159863 0.883035 -0.372460 -0.185319 0.660800 -0.906842 0.513263 -0.085881 0.136125 -0.587946 -0.868269 -0.847708 0.806605 0.338736 0.269102 0.073362 -0.109521 -0.009050 0.297285 0.208146 -0.347483 -0.149466 -0.656121 -0.525497 0.622018 -0.438117 -0.947487 0.914792 0.621021 0.396292 -0.587349 -0.587452 0.114847 -0.626691 0.608491 0.690313 -0.604486 0.879137 -0.643007 0.667768 0.157066 -0.717088 -0.630316 -0.300117 0.943997 -0.802314 -0.245454 -0.748231 -0.866669 0.357745 -0.209673 0.395667 -0.456653 -0.645514 0.127384 -0.116075 -0.939656 -0.247275 -0.141079 -0.366528 0.162257 0.291585 -0.857808 -0.791932 0.425970 0.538673 0.559957 0.110856 -0.821479 0.944196 -0.096904 0.599936 0.865730 -0.522639 -0.853400 -0.951796 0.661274 -0.542442 -0.498335 -0.301102 0.291607 -0.371329 0.673193 -0.912486 -0.803701 -0.078792 -0.514161 0.431381 0.750641 0.870352 -0.929728 -0.857436 0.630948 0.005313 -0.606836 -0.586318 0.876234 -0.886485 0.570399 0.397709 -0.171432 -0.162921 -0.940336 -0.162150 -0.693068 -0.526095 0.820950 0.219285 -0.525356 -0.709818 -0.106312 -0.075089 0.041240 -0.354055 -0.020942 -0.251505 -0.310569 0.152615 -0.573225 -0.821411 0.995058 -0.426454 0.889799 0.747381 -0.974444 0.582508 -0.327287 -0.056998 0.074019 0.731036 0.605475 -0.791452 -0.166991 -0.484402 -0.782083 -0.297776 -0.244729 -0.719066 -0.105998 -0.772451 0.720501 -0.623199 -0.563597 0.069464 0.967858 0.460125 0.002700 0.216060 -0.703310 0.936209 -0.997687 -0.856916 -0.428083 0.635964 0.770161 0.076991 0.839334 -0.370807 0.351933 -0.570422 -0.453560 -0.150145 0.551510 0.873647 -0.812949 0.937199 0.929666 0.641430 -0.223169 -0.268470 -0.704657 0.229480 0.248924 0.911101 0.139587 0.830649 -0.791224 0.515575 0.011589 0.351909 0.323285 -0.932597 -0.366536 0.687656 -0.035797 0.779281 0.255422 0.575143 -0.059402 0.761022 0.068611 0.687909 0.014247 -0.149457 0.295622 -0.706626 0.832833 -0.782186 -0.627116 0.652829 -0.556509 0.448312 0.943858 -0.810559 -0.945452 0.683182 -0.576502 0.578594 -0.147858 -0.998095 -0.206439 -0.790185 -0.119779 0.105664 -0.293324 -0.979451 -0.429494 -0.558066 0.643760 0.052409 -0.556036 -0.806649 -0.788131 0.767259 0.010528 0.037567 0.913261 -0.424893 0.502520 0.476657 0.677341
forgive 0.009706 0.424013 -0.929172 -0.379773 0.379965 0.238944 -0.891628 -0.349745 0.822624 0.939266 -0.604030 -0.495061 -0.830150 0.790309 -0.945692 0.143653 -0.253165 -0.645913 0.364093 -0.731224 -0.184962 0.105925 0.471001 -0.559983 -0.097426 -0.266424 -0.516920 0.734541 0.502301 -0.163132 -0.481272 0.007563 0.176936 0.267967 0.527725 0.659217 -0.807416 0.511184 -0.509959 -0.078904 0.731738 -0.458755 0.077535 0.462456 0.225570 0.335995 -0.703213 0.704555 0.173403 -0.507779 -0.238263 -0.950467 0.223802 0.386101 0.083385 -0.817101 -0.895778 -0.143194 -0.977698 0.269272 0.833112 -0.525930 -0.663702 -0.835861 -0.769229 -0.525424 0.605308 -0.003106 0.204799 0.474931 0.166092 -0.730575 -0.611728 -0.671352 -0.240294 -0.402651 0.062903 0.104179 0.624194 0.263261 0.228043 0.550558 0.443409 -0.843649 0.666025 0.145670 0.120662 0.450532 0.613502 0.958897 0.860893 0.351598 -0.159134 -0.309139 -0.126705 0.393778 0.359293 -0.022704 0.400239 -0.764931 0.602488 -0.468884 0.155481 -0.065452 0.501929 0.747830 -0.047932 0.449725 0.709135 0.056067 0.835324 -0.535495 -0.314265 -0.519027 0.529133 -0.105555 0.523789 -0.003875 0.984757 -0.073929 0.294187 0.243742 0.234628 0.463684 0.393494 0.103865 0.663233 0.028143 -0.793687 0.181430 -0.151322 0.199976 -0.162951 -0.182166 0.640082 -0.675644 -0.580367 0.885116 -0.206897 -0.783636 0.159010 -0.927233 0.503524 0.056030 -0.388062 0.373420 -0.424133 0.786738 0.116227 -0.327046 -0.667950 -0.424195 0.368202 0.370777 0.722011 -0.262565 -0.935684 -0.316071 -0.836873 -0.742359 -0.362546 0.128817 -0.321536 -0.160246 -0.303459 -0.116189 -0.778662 -0.374235 0.627366 -0.958269 -0.035193 -0.326720 -0.001843 0.005948 0.578212 -0.735804 0.292241 -0.342452 0.609476 0.910079 0.062737 -0.962188 0.368958 -0.826103 0.577878 0.377285 -0.604980 0.968337 0.730272 0.624855 0.365416 -0.696462 -0.742311 0.885507 -0.028933 -0.593193 0.614450 -0.844224 -0.137156 -0.903595 -0.876544 -0.088951 -0.483111 0.926774 0.410688 -0.868653 -0.708102 0.474161 0.211917 0.903826 -0.258133 -0.595347 0.976339 -0.256218 0.966579 0.761652 -0.749841 -0.139465 -0.005276 -0.052437 0.081836 0.247756 -0.843816 0.043065 0.440691 -0.892342 -0.621871 -0.962549 0.428479 -0.858663 -0.753411 0.152099 -0.164894 -0.705481 0.308037 0.259010 -0.418036 -0.661523 -0.001533 0.722052 0.374651 -0.287428 0.992114 0.562639 0.163027 -0.247140 0.158024 0.003553 -0.729294 -0.572176 0.690173 0.550261 0.040389 -0.059593 0.875205 0.309283 0.294417 -0.532266 -0.768010 -0.567059 -0.767048 -0.587506 -0.965110 0.659871 0.749944 0.433482 -0.865022 0.358062 0.693425 0.995466 0.955130 0.497672 -0.283938 0.983389 -0.562713 0.305002 0.570138 0.870939 0.354451 -0.881738 0.097460 -0.720043 0.518135 0.488573 -0.280201 0.173994 0.272228 0.330130 -0.615940 -0.813817 0.497284 -0.418070 0.740671 -0.083085 0.465115 -0.247149 -0.377879 -0.312049 0.458635 -0.240528
get 0.910274 -0.159893 0.110861 0.570164 0.844029 0.052294 0.605431 0.754970 -0.926932 0.267972 0.998904 0.846011 0.291006 0.179104 -0.907276 0.651623 -0.348897 -0.195499 -0.642275 0.936732 0.717362 0.928606 0.108030 -0.807474 0.768144 0.562234 -0.685735 0.045516 0.370707 -0.128180 0.100019 -0.463920 0.735462 0.864289 0.124705 -0.134930 0.234278 0.400471 0.027859 0.576929 0.119146 -0.734556 0.069867 0.443720 0.679459 0.410909 -0.253491 0.403213 0.530757 0.122919 0.538286 -0.397106 -0.175641 -0.280173 0.783798 0.160922 -0.833420 -0.417674 0.367528 0.087328 0.691418 0.477437 -0.581911 0.196781 -0.477091 -0.667022 0.035028 0.406550 0.914565 -0.692918 -0.381972 0.203568 -0.016035 0.794925 0.315414 0.082069 -0.212100 -0.514184 0.257782 -0.387936 -0.026694 0.686520 0.564093 0.898038 0.442246 -0.578641 0.323262 0.653629 0.536250 0.548552 0.756464 -0.588368 -0.807225 0.962074 0.385450 -0.354905 0.918916 -0.790231 -0.069141 -0.254108 -0.648700 0.026423 -0.427619 0.402533 -0.619175 -0.325102 -0.101114 0.799527 -0.100484 -0.017566 0.453419 -0.998813 -0.976408 0.075003 -0.001539 -0.649030 0.561607 0.485645 0.473110 -0.244659 0.739590 -0.686537 -0.541369 -0.128413 -0.995293 -0.290776 -0.903412 0.862438 -0.168260 -0.855505 -0.430510 -0.399154 0.740003 0.227280 0.091016 -0.402031 0.149716 0.058737 -0.845839 0.166599 0.431787 -0.399029 -0.013848 -0.062335 0.229727 -0.319698 -0.360580 -0.497202 -0.214422 -0.655752 0.850599 -0.598081 0.672668 -0.563525 -0.212679 0.852617 0.633811 -0.964496 -0.202525 0.081285 -0.722141 -0.376780 0.184528 -0.368815 -0.679581 0.856969 0.789568 -0.054922 -0.678948 -0.966059 -0.959226 0.991527 -0.144747 -0.302451 -0.218784 0.867981 0.502419 0.051614 -0.263240 -0.052654 -0.780045 0.785968 -0.721717 0.244900 -0.172115 0.660392 -0.122360 -0.369462 0.624096 -0.617349 0.982561 -0.131422 0.680890 -0.878519 0.338833 0.805710 -0.817881 0.503223 0.145359 -0.258392 0.988447 0.632088 0.775249 0.935213 -0.735112 0.869766 -0.808761 0.264027 -0.220135 0.079388 0.681020 0.395294 -0.757679 0.360654 0.579796 0.341615 0.613555 0.991657 -0.913332 -0.447757 -0.545838 0.162043 -0.848664 -0.164908 -0.237815 -0.158541 -0.476704 0.512040 -0.117965 -0.970087 -0.173760 0.203185 0.760461 0.919517 -0.723825 0.184965 -0.671563 0.222856 0.653894 -0.010700 -0.590082 0.983814 0.212700 -0.723919 0.251624 0.929582 -0.818457 -0.247929 -0.639940 0.871876 -0.651712 0.461513 -0.849707 0.380562 -0.281947 -0.221771 -0.002935 0.250418 0.222447 0.248501 -0.876307 0.416158 0.991534 0.164448 -0.096358 0.084553 -0.055882 -0.988246 0.210296 -0.838758 -0.444403 0.791170 0.502974 -0.050601 0.908199 0.373995 -0.912856 0.307468 -0.576008 -0.739447 0.613023 0.361852 0.301522 0.953180 0.281072 0.389931 0.778410 0.104466 0.062888 0.368806 0.974077 0.079702 -0.271093 -0.888979 -0.618516 -0.577334 -0.409412 -0.566103 -0.298297 0.556882
belly 0.343213 0.125221 0.203773 -0.395145 -0.168245 0.090271 0.237166 0.621764 -0.682592 0.149963 0.301578 -0.439235 0.880733 -0.644426 0.056056 -0.673774 -0.636324 -0.039004 0.834575 0.094945 0.259533 -0.620618 -0.453531 -0.114390 -0.111787 -0.734357 0.064406 -0.191635 0.421178 -0.430388 -0.515642 -0.379162 0.238605 0.359819 0.310372 -0.616922 -0.782614 0.163973 0.726481 0.216789 0.083270 0.158510 0.016807 -0.962271 -0.293517 -0.607230 -0.187256 -0.597214 0.509990 -0.193611 -0.680912 -0.595988 0.565947 0.138877 -0.247281 0.968635 0.031693 0.394506 -0.804554 -0.955712 0.569016 -0.880342 0.500393 0.677805 0.080020 -0.976772 0.882858 -0.525759 0.968326 -0.727875 -0.552611 -0.562168 0.502994 0.601082 0.212345 0.439090 0.965005 0.033965 0.658042 -0.455245 0.418095 -0.643658 0.281598 -0.417701 0.304680 0.504310 -0.448365 0.043776 0.563446 0.125517 -0.045765 -0.261335 0.783069 -0.013357 -0.349106 0.579162 0.486271 -0.596417 -0.443404 0.533243 -0.424434 -0.099010 -0.019049 -0.424307 -0.977867 -0.785316 -0.287904 0.718889 -0.157198 -0.995453 -0.735581 -0.419066 -0.972908 0.780405 -0.452670 0.140977 0.427582 0.095368 0.211873 -0.014624 0.410479 0.694371 0.158467 0.540285 -0.610997 0.072683 -0.960907 -0.327468 -0.143826 0.921982 0.155675 0.827854 0.023574 0.836070 0.782061 -0.082412 0.355038 -0.055087 -0.338526 -0.195489 -0.466742 0.630523 0.962142 0.645000 0.903043 0.914415 -0.318816 0.907548 0.383744 -0.453611 0.862309 0.919928 -0.459795 -0.985074 0.325142 0.325574 -0.287495 -0.101641 -0.600568 -0.103415 -0.335468 0.505229 -0.714669 -0.376908 0.891586 -0.970134 0.148115 -0.632375 -0.508867 0.633206 0.341582 0.460009 -0.659960 0.773904 -0.032298 0.182238 -0.916948 -0.555798 -0.144640 0.848793 -0.518291 -0.313950 -0.986273 0.772618 -0.406708 -0.649822 -0.113095 0.577144 -0.552669 0.718107 -0.746060 0.807747 -0.747641 0.764407 0.117785 0.534608 0.110118 -0.490237 0.870416 0.707214 0.216200 -0.922674 0.784098 -0.673357 -0.343759 -0.073724 0.262428 -0.818083 0.752681 -0.315164 -0.120698 0.358554 0.499674 -0.690814 0.369422 0.962885 -0.875644 -0.467611 0.971748 -0.750531 0.690082 -0.157394 0.433326 -0.864031 0.971110 0.213639 0.401996 -0.958515 -0.523531 -0.172603 0.604175 -0.245647 0.625027 -0.077011 0.277148 -0.308085 0.064457 -0.168211 0.055633 -0.965533 0.294025 0.712261 -0.636020 -0.463338 0.932582 -0.044178 -0.758400 -0.177001 -0.695870 -0.620626 -0.665764 0.189067 -0.808828 0.984054 -0.580231 0.263369 -0.424997 -0.051579 -0.092160 0.382375 0.285456 -0.171318 -0.443132 -0.753594 0.756499 -0.639181 -0.570093 0.503702 -0.841910 0.972602 0.511593 0.380258 0.335000 -0.236476 0.249908 0.608940 -0.032255 0.972875 -0.026822 0.804687 0.901332 0.934375 0.768387 -0.409456 -0.637872 -0.854665 0.148452 0.940004 -0.522159 0.016647 0.710224 -0.845394 0.821086 0.275240 0.065731 -0.930801 -0.024642 0.795934 -0.686034 -0.839518
